<?xml version="1.0"?>
<opencv_storage>
<!-- Created using Computer Vision System Toolbox(tm) for MATLAB(R) -->
<!-- Version 8.5.0.197613 (R2015a) -->
<!-- Compatible with OpenCV 2.4 -->
<cascade>
  <stageType>BOOST</stageType>
  <featureType>HAAR</featureType>
  <height>32</height>
  <width>47</width>
  <stageParams>
    <boostType>GAB</boostType>
    <minHitRate>9.9500000476837158e-01</minHitRate>
    <maxFalseAlarm>2.0000000298023224e-01</maxFalseAlarm>
    <weightTrimRate>9.4999999999999996e-01</weightTrimRate>
    <maxDepth>1</maxDepth>
    <maxWeakCount>100</maxWeakCount></stageParams>
  <featureParams>
    <maxCatCount>0</maxCatCount>
    <featSize>1</featSize>
    <mode>BASIC</mode></featureParams>
  <stageNum>16</stageNum>
  <stages>
    <!-- stage 0 -->
    <_>
      <maxWeakCount>10</maxWeakCount>
      <stageThreshold>-9.4507604837417603e-01</stageThreshold>
      <weakClassifiers>
        <_>
          <internalNodes>
            0 -1 139 -7.1706339716911316e-02</internalNodes>
          <leafValues>
            8.1123596429824829e-01 -6.8761903047561646e-01</leafValues></_>
        <_>
          <internalNodes>
            0 -1 1 4.2875832878053188e-03</internalNodes>
          <leafValues>
            -3.0937498807907104e-01 8.1288975477218628e-01</leafValues></_>
        <_>
          <internalNodes>
            0 -1 199 -1.9155496731400490e-02</internalNodes>
          <leafValues>
            7.6319628953933716e-01 -2.8958395123481750e-01</leafValues></_>
        <_>
          <internalNodes>
            0 -1 103 -5.7750130072236061e-03</internalNodes>
          <leafValues>
            5.6142318248748779e-01 -3.7181407213211060e-01</leafValues></_>
        <_>
          <internalNodes>
            0 -1 24 -6.5376013517379761e-03</internalNodes>
          <leafValues>
            6.2804967164993286e-01 -3.0820387601852417e-01</leafValues></_>
        <_>
          <internalNodes>
            0 -1 120 -8.0029796808958054e-03</internalNodes>
          <leafValues>
            4.9384230375289917e-01 -3.9629617333412170e-01</leafValues></_>
        <_>
          <internalNodes>
            0 -1 124 3.7254597991704941e-03</internalNodes>
          <leafValues>
            -2.3421329259872437e-01 7.3130100965499878e-01</leafValues></_>
        <_>
          <internalNodes>
            0 -1 63 6.0415593907237053e-03</internalNodes>
          <leafValues>
            -3.2516312599182129e-01 5.3350573778152466e-01</leafValues></_>
        <_>
          <internalNodes>
            0 -1 271 1.3013959687668830e-04</internalNodes>
          <leafValues>
            3.3807301521301270e-01 -4.8998013138771057e-01</leafValues></_>
        <_>
          <internalNodes>
            0 -1 205 -7.0067383348941803e-03</internalNodes>
          <leafValues>
            7.3805338144302368e-01 -2.6264834403991699e-01</leafValues></_></weakClassifiers></_>
    <!-- stage 1 -->
    <_>
      <maxWeakCount>15</maxWeakCount>
      <stageThreshold>-8.8363724946975708e-01</stageThreshold>
      <weakClassifiers>
        <_>
          <internalNodes>
            0 -1 27 -2.6668727397918701e-02</internalNodes>
          <leafValues>
            -7.0632910728454590e-01 4.8521739244461060e-01</leafValues></_>
        <_>
          <internalNodes>
            0 -1 60 1.0500986129045486e-02</internalNodes>
          <leafValues>
            -4.0639871358871460e-01 5.9678226709365845e-01</leafValues></_>
        <_>
          <internalNodes>
            0 -1 121 -1.4488980174064636e-01</internalNodes>
          <leafValues>
            6.8091779947280884e-01 -2.9249712824821472e-01</leafValues></_>
        <_>
          <internalNodes>
            0 -1 122 -1.6256775707006454e-02</internalNodes>
          <leafValues>
            7.5505799055099487e-01 -1.9782771170139313e-01</leafValues></_>
        <_>
          <internalNodes>
            0 -1 136 -4.0256302803754807e-02</internalNodes>
          <leafValues>
            6.4091086387634277e-01 -2.2344020009040833e-01</leafValues></_>
        <_>
          <internalNodes>
            0 -1 94 -4.3808657210320234e-04</internalNodes>
          <leafValues>
            3.3335819840431213e-01 -5.1406872272491455e-01</leafValues></_>
        <_>
          <internalNodes>
            0 -1 82 4.9408088671043515e-05</internalNodes>
          <leafValues>
            -4.8141157627105713e-01 3.0748265981674194e-01</leafValues></_>
        <_>
          <internalNodes>
            0 -1 264 -1.7257598228752613e-03</internalNodes>
          <leafValues>
            7.0571839809417725e-01 -1.8978780508041382e-01</leafValues></_>
        <_>
          <internalNodes>
            0 -1 224 3.2360805198550224e-03</internalNodes>
          <leafValues>
            1.8776850402355194e-01 -7.0440018177032471e-01</leafValues></_>
        <_>
          <internalNodes>
            0 -1 266 -3.6073985975235701e-03</internalNodes>
          <leafValues>
            3.2508704066276550e-01 -4.2062866687774658e-01</leafValues></_>
        <_>
          <internalNodes>
            0 -1 0 -2.6822436484508216e-04</internalNodes>
          <leafValues>
            -5.1960206031799316e-01 2.9103401303291321e-01</leafValues></_>
        <_>
          <internalNodes>
            0 -1 183 -1.5885464847087860e-02</internalNodes>
          <leafValues>
            6.4474755525588989e-01 -2.3861630260944366e-01</leafValues></_>
        <_>
          <internalNodes>
            0 -1 29 -9.5784831792116165e-03</internalNodes>
          <leafValues>
            4.0661650896072388e-01 -3.5419514775276184e-01</leafValues></_>
        <_>
          <internalNodes>
            0 -1 62 -2.2974450141191483e-02</internalNodes>
          <leafValues>
            3.5881200432777405e-01 -3.8354724645614624e-01</leafValues></_>
        <_>
          <internalNodes>
            0 -1 223 2.1175057627260685e-03</internalNodes>
          <leafValues>
            -2.1517528593540192e-01 6.1011570692062378e-01</leafValues></_></weakClassifiers></_>
    <!-- stage 2 -->
    <_>
      <maxWeakCount>18</maxWeakCount>
      <stageThreshold>-7.7430069446563721e-01</stageThreshold>
      <weakClassifiers>
        <_>
          <internalNodes>
            0 -1 179 1.3634896278381348e-01</internalNodes>
          <leafValues>
            -2.8611111640930176e-01 8.2400000095367432e-01</leafValues></_>
        <_>
          <internalNodes>
            0 -1 107 1.7367154359817505e-02</internalNodes>
          <leafValues>
            -3.7877219915390015e-01 5.3162163496017456e-01</leafValues></_>
        <_>
          <internalNodes>
            0 -1 56 -1.4096640050411224e-02</internalNodes>
          <leafValues>
            5.4138743877410889e-01 -3.4750238060951233e-01</leafValues></_>
        <_>
          <internalNodes>
            0 -1 35 5.4851046297699213e-04</internalNodes>
          <leafValues>
            1.8908628821372986e-01 -6.7485737800598145e-01</leafValues></_>
        <_>
          <internalNodes>
            0 -1 3 -2.8531090356409550e-03</internalNodes>
          <leafValues>
            -4.7141292691230774e-01 2.6084759831428528e-01</leafValues></_>
        <_>
          <internalNodes>
            0 -1 244 6.8276710808277130e-03</internalNodes>
          <leafValues>
            -3.2498353719711304e-01 3.9821162819862366e-01</leafValues></_>
        <_>
          <internalNodes>
            0 -1 206 -1.6565209254622459e-02</internalNodes>
          <leafValues>
            6.3477873802185059e-01 -1.6432367265224457e-01</leafValues></_>
        <_>
          <internalNodes>
            0 -1 182 3.3526264131069183e-02</internalNodes>
          <leafValues>
            -1.6037958860397339e-01 6.8068337440490723e-01</leafValues></_>
        <_>
          <internalNodes>
            0 -1 237 -1.2007106561213732e-03</internalNodes>
          <leafValues>
            5.0069922208786011e-01 -2.0728395879268646e-01</leafValues></_>
        <_>
          <internalNodes>
            0 -1 189 -6.7697786726057529e-03</internalNodes>
          <leafValues>
            8.1650882959365845e-01 -1.3032212853431702e-01</leafValues></_>
        <_>
          <internalNodes>
            0 -1 86 1.1115701496601105e-01</internalNodes>
          <leafValues>
            -1.5937183797359467e-01 5.6482380628585815e-01</leafValues></_>
        <_>
          <internalNodes>
            0 -1 184 -2.0459671504795551e-03</internalNodes>
          <leafValues>
            7.1867859363555908e-01 -1.3484743237495422e-01</leafValues></_>
        <_>
          <internalNodes>
            0 -1 68 4.4735195115208626e-03</internalNodes>
          <leafValues>
            -1.3742870092391968e-01 6.4139354228973389e-01</leafValues></_>
        <_>
          <internalNodes>
            0 -1 238 -2.5031203404068947e-03</internalNodes>
          <leafValues>
            5.2203619480133057e-01 -2.0965917408466339e-01</leafValues></_>
        <_>
          <internalNodes>
            0 -1 118 -1.9908387912437320e-04</internalNodes>
          <leafValues>
            3.3305785059928894e-01 -3.4367331862449646e-01</leafValues></_>
        <_>
          <internalNodes>
            0 -1 263 3.4630368463695049e-04</internalNodes>
          <leafValues>
            1.5059740841388702e-01 -7.1401375532150269e-01</leafValues></_>
        <_>
          <internalNodes>
            0 -1 16 3.5854168236255646e-03</internalNodes>
          <leafValues>
            -2.2636795043945313e-01 5.4032558202743530e-01</leafValues></_>
        <_>
          <internalNodes>
            0 -1 270 -1.1798995546996593e-04</internalNodes>
          <leafValues>
            -4.5379653573036194e-01 2.7185347676277161e-01</leafValues></_></weakClassifiers></_>
    <!-- stage 3 -->
    <_>
      <maxWeakCount>22</maxWeakCount>
      <stageThreshold>-6.7102432250976563e-01</stageThreshold>
      <weakClassifiers>
        <_>
          <internalNodes>
            0 -1 148 3.9909116923809052e-02</internalNodes>
          <leafValues>
            -2.5977653264999390e-01 7.3228347301483154e-01</leafValues></_>
        <_>
          <internalNodes>
            0 -1 200 2.6202427688986063e-03</internalNodes>
          <leafValues>
            -2.9119411110877991e-01 4.8297312855720520e-01</leafValues></_>
        <_>
          <internalNodes>
            0 -1 89 1.5846457332372665e-02</internalNodes>
          <leafValues>
            -4.3991953134536743e-01 3.0614998936653137e-01</leafValues></_>
        <_>
          <internalNodes>
            0 -1 108 -1.2116415426135063e-02</internalNodes>
          <leafValues>
            4.3148845434188843e-01 -3.1470045447349548e-01</leafValues></_>
        <_>
          <internalNodes>
            0 -1 268 2.5954502634704113e-03</internalNodes>
          <leafValues>
            -2.0791870355606079e-01 4.8990309238433838e-01</leafValues></_>
        <_>
          <internalNodes>
            0 -1 134 1.6322421288350597e-05</internalNodes>
          <leafValues>
            -4.1727000474929810e-01 3.0904302000999451e-01</leafValues></_>
        <_>
          <internalNodes>
            0 -1 9 7.5775251025334001e-04</internalNodes>
          <leafValues>
            1.6815620660781860e-01 -6.6244810819625854e-01</leafValues></_>
        <_>
          <internalNodes>
            0 -1 159 1.6456586308777332e-05</internalNodes>
          <leafValues>
            -3.2644602656364441e-01 3.0004492402076721e-01</leafValues></_>
        <_>
          <internalNodes>
            0 -1 110 -1.6072333892225288e-05</internalNodes>
          <leafValues>
            3.1796336174011230e-01 -3.0506044626235962e-01</leafValues></_>
        <_>
          <internalNodes>
            0 -1 166 -9.4788917340338230e-04</internalNodes>
          <leafValues>
            3.4783133864402771e-01 -2.9205495119094849e-01</leafValues></_>
        <_>
          <internalNodes>
            0 -1 55 -1.3531830906867981e-01</internalNodes>
          <leafValues>
            -8.4786039590835571e-01 1.6725386679172516e-01</leafValues></_>
        <_>
          <internalNodes>
            0 -1 31 -2.0021685486426577e-05</internalNodes>
          <leafValues>
            2.1956641972064972e-01 -4.1930219531059265e-01</leafValues></_>
        <_>
          <internalNodes>
            0 -1 186 6.6429556682123803e-06</internalNodes>
          <leafValues>
            -3.4107330441474915e-01 3.2650491595268250e-01</leafValues></_>
        <_>
          <internalNodes>
            0 -1 193 -2.7363258413970470e-03</internalNodes>
          <leafValues>
            3.8556760549545288e-01 -2.3996748030185699e-01</leafValues></_>
        <_>
          <internalNodes>
            0 -1 104 5.7930853217840195e-03</internalNodes>
          <leafValues>
            -1.1508121341466904e-01 7.5785881280899048e-01</leafValues></_>
        <_>
          <internalNodes>
            0 -1 74 -1.3231551274657249e-03</internalNodes>
          <leafValues>
            4.0357586741447449e-01 -2.5819405913352966e-01</leafValues></_>
        <_>
          <internalNodes>
            0 -1 105 -1.6645115465507843e-05</internalNodes>
          <leafValues>
            2.7715584635734558e-01 -3.5770404338836670e-01</leafValues></_>
        <_>
          <internalNodes>
            0 -1 235 3.8767448859289289e-04</internalNodes>
          <leafValues>
            -2.0935693383216858e-01 5.5093175172805786e-01</leafValues></_>
        <_>
          <internalNodes>
            0 -1 140 5.9918297665717546e-06</internalNodes>
          <leafValues>
            -2.4401095509529114e-01 3.8854858279228210e-01</leafValues></_>
        <_>
          <internalNodes>
            0 -1 98 1.5538578736595809e-05</internalNodes>
          <leafValues>
            -2.8047445416450500e-01 3.5042756795883179e-01</leafValues></_>
        <_>
          <internalNodes>
            0 -1 181 -1.7447474237997085e-04</internalNodes>
          <leafValues>
            -4.9878665804862976e-01 2.1400462090969086e-01</leafValues></_>
        <_>
          <internalNodes>
            0 -1 261 1.2238157796673477e-04</internalNodes>
          <leafValues>
            1.5365453064441681e-01 -6.1927527189254761e-01</leafValues></_></weakClassifiers></_>
    <!-- stage 4 -->
    <_>
      <maxWeakCount>22</maxWeakCount>
      <stageThreshold>-8.0183809995651245e-01</stageThreshold>
      <weakClassifiers>
        <_>
          <internalNodes>
            0 -1 52 2.0010761916637421e-02</internalNodes>
          <leafValues>
            -4.0562248229980469e-01 4.2796608805656433e-01</leafValues></_>
        <_>
          <internalNodes>
            0 -1 216 5.3697582334280014e-03</internalNodes>
          <leafValues>
            -1.9390754401683807e-01 6.7278182506561279e-01</leafValues></_>
        <_>
          <internalNodes>
            0 -1 34 -2.4531391682103276e-04</internalNodes>
          <leafValues>
            -5.7423609495162964e-01 2.2173652052879333e-01</leafValues></_>
        <_>
          <internalNodes>
            0 -1 32 -2.8899562312290072e-04</internalNodes>
          <leafValues>
            2.5266736745834351e-01 -4.0267404913902283e-01</leafValues></_>
        <_>
          <internalNodes>
            0 -1 204 -1.0095959529280663e-02</internalNodes>
          <leafValues>
            3.5095375776290894e-01 -3.0774605274200439e-01</leafValues></_>
        <_>
          <internalNodes>
            0 -1 84 4.0696454234421253e-03</internalNodes>
          <leafValues>
            -1.5180355310440063e-01 7.0661103725433350e-01</leafValues></_>
        <_>
          <internalNodes>
            0 -1 192 -1.8372556194663048e-02</internalNodes>
          <leafValues>
            4.3860977888107300e-01 -2.0041249692440033e-01</leafValues></_>
        <_>
          <internalNodes>
            0 -1 150 2.8356509574223310e-05</internalNodes>
          <leafValues>
            -2.6128545403480530e-01 3.5335975885391235e-01</leafValues></_>
        <_>
          <internalNodes>
            0 -1 247 -1.0514040477573872e-03</internalNodes>
          <leafValues>
            3.4773349761962891e-01 -2.5189921259880066e-01</leafValues></_>
        <_>
          <internalNodes>
            0 -1 116 -6.5046856434491929e-06</internalNodes>
          <leafValues>
            2.8372669219970703e-01 -3.1952291727066040e-01</leafValues></_>
        <_>
          <internalNodes>
            0 -1 185 -4.3125702068209648e-03</internalNodes>
          <leafValues>
            -4.8939439654350281e-01 1.9892744719982147e-01</leafValues></_>
        <_>
          <internalNodes>
            0 -1 176 2.7887776494026184e-02</internalNodes>
          <leafValues>
            -1.1490000039339066e-01 9.1397476196289063e-01</leafValues></_>
        <_>
          <internalNodes>
            0 -1 162 2.0038249203935266e-04</internalNodes>
          <leafValues>
            2.2541914880275726e-01 -4.3928256630897522e-01</leafValues></_>
        <_>
          <internalNodes>
            0 -1 12 -4.9997614696621895e-03</internalNodes>
          <leafValues>
            -7.5996559858322144e-01 1.3592590391635895e-01</leafValues></_>
        <_>
          <internalNodes>
            0 -1 157 -3.3773921895772219e-03</internalNodes>
          <leafValues>
            7.3183912038803101e-01 -1.4355917274951935e-01</leafValues></_>
        <_>
          <internalNodes>
            0 -1 115 4.0463439654558897e-04</internalNodes>
          <leafValues>
            2.3300862312316895e-01 -4.1389021277427673e-01</leafValues></_>
        <_>
          <internalNodes>
            0 -1 95 -5.7398870012548286e-06</internalNodes>
          <leafValues>
            2.6591387391090393e-01 -3.2072749733924866e-01</leafValues></_>
        <_>
          <internalNodes>
            0 -1 72 2.9964710120111704e-03</internalNodes>
          <leafValues>
            -1.8830053508281708e-01 5.1250272989273071e-01</leafValues></_>
        <_>
          <internalNodes>
            0 -1 212 5.4911675397306681e-04</internalNodes>
          <leafValues>
            2.2881419956684113e-01 -4.5350715517997742e-01</leafValues></_>
        <_>
          <internalNodes>
            0 -1 109 -1.0249701328575611e-02</internalNodes>
          <leafValues>
            5.4130011796951294e-01 -1.8120734393596649e-01</leafValues></_>
        <_>
          <internalNodes>
            0 -1 222 1.4091673074290156e-03</internalNodes>
          <leafValues>
            -1.5298873186111450e-01 5.7167786359786987e-01</leafValues></_>
        <_>
          <internalNodes>
            0 -1 246 2.2766287438571453e-03</internalNodes>
          <leafValues>
            -1.0152445733547211e-01 9.5650190114974976e-01</leafValues></_></weakClassifiers></_>
    <!-- stage 5 -->
    <_>
      <maxWeakCount>21</maxWeakCount>
      <stageThreshold>-6.8373239040374756e-01</stageThreshold>
      <weakClassifiers>
        <_>
          <internalNodes>
            0 -1 203 2.9213193804025650e-02</internalNodes>
          <leafValues>
            -2.5787964463233948e-01 6.6176468133926392e-01</leafValues></_>
        <_>
          <internalNodes>
            0 -1 92 7.4943199753761292e-02</internalNodes>
          <leafValues>
            -3.1406712532043457e-01 4.0486049652099609e-01</leafValues></_>
        <_>
          <internalNodes>
            0 -1 48 -7.1943968578125350e-06</internalNodes>
          <leafValues>
            2.3028816282749176e-01 -5.0404083728790283e-01</leafValues></_>
        <_>
          <internalNodes>
            0 -1 80 -1.0560825467109680e-03</internalNodes>
          <leafValues>
            2.1819084882736206e-01 -4.5127725601196289e-01</leafValues></_>
        <_>
          <internalNodes>
            0 -1 125 4.6908641234040260e-03</internalNodes>
          <leafValues>
            -3.4204170107841492e-01 3.8312959671020508e-01</leafValues></_>
        <_>
          <internalNodes>
            0 -1 151 -5.7398870012548286e-06</internalNodes>
          <leafValues>
            2.3536978662014008e-01 -4.3387261033058167e-01</leafValues></_>
        <_>
          <internalNodes>
            0 -1 240 -8.8741804938763380e-04</internalNodes>
          <leafValues>
            2.2984324395656586e-01 -5.5408555269241333e-01</leafValues></_>
        <_>
          <internalNodes>
            0 -1 54 -2.9257843270897865e-03</internalNodes>
          <leafValues>
            6.2535136938095093e-01 -2.0479457080364227e-01</leafValues></_>
        <_>
          <internalNodes>
            0 -1 209 1.3376015704125166e-04</internalNodes>
          <leafValues>
            2.2581921517848969e-01 -5.6345319747924805e-01</leafValues></_>
        <_>
          <internalNodes>
            0 -1 57 -3.3061706926673651e-04</internalNodes>
          <leafValues>
            -6.1911475658416748e-01 1.3567879796028137e-01</leafValues></_>
        <_>
          <internalNodes>
            0 -1 227 -2.7324208058416843e-03</internalNodes>
          <leafValues>
            6.3191622495651245e-01 -1.6737978160381317e-01</leafValues></_>
        <_>
          <internalNodes>
            0 -1 114 4.2118811979889870e-03</internalNodes>
          <leafValues>
            -2.2302046418190002e-01 5.3744685649871826e-01</leafValues></_>
        <_>
          <internalNodes>
            0 -1 218 -4.1904486715793610e-03</internalNodes>
          <leafValues>
            8.5256713628768921e-01 -9.3788787722587585e-02</leafValues></_>
        <_>
          <internalNodes>
            0 -1 101 -2.2307233884930611e-03</internalNodes>
          <leafValues>
            -6.9970393180847168e-01 1.6416807472705841e-01</leafValues></_>
        <_>
          <internalNodes>
            0 -1 171 7.3339353548362851e-04</internalNodes>
          <leafValues>
            1.3817353546619415e-01 -7.1628677845001221e-01</leafValues></_>
        <_>
          <internalNodes>
            0 -1 112 8.3706190343946218e-04</internalNodes>
          <leafValues>
            -2.0335389673709869e-01 4.8721852898597717e-01</leafValues></_>
        <_>
          <internalNodes>
            0 -1 252 8.5886416491121054e-04</internalNodes>
          <leafValues>
            2.1455274522304535e-01 -4.1587254405021667e-01</leafValues></_>
        <_>
          <internalNodes>
            0 -1 22 -8.5339304059743881e-03</internalNodes>
          <leafValues>
            7.0735442638397217e-01 -1.3300837576389313e-01</leafValues></_>
        <_>
          <internalNodes>
            0 -1 143 -1.0312271770089865e-03</internalNodes>
          <leafValues>
            -6.8926346302032471e-01 1.6539448499679565e-01</leafValues></_>
        <_>
          <internalNodes>
            0 -1 39 4.8870564205572009e-04</internalNodes>
          <leafValues>
            -4.3867456912994385e-01 2.0345903933048248e-01</leafValues></_>
        <_>
          <internalNodes>
            0 -1 257 5.5368551984429359e-03</internalNodes>
          <leafValues>
            -2.0522303879261017e-01 4.9213203787803650e-01</leafValues></_></weakClassifiers></_>
    <!-- stage 6 -->
    <_>
      <maxWeakCount>25</maxWeakCount>
      <stageThreshold>-6.4097040891647339e-01</stageThreshold>
      <weakClassifiers>
        <_>
          <internalNodes>
            0 -1 147 -1.2106026709079742e-01</internalNodes>
          <leafValues>
            8.2198953628540039e-01 -2.0154044032096863e-01</leafValues></_>
        <_>
          <internalNodes>
            0 -1 2 4.1338773444294930e-03</internalNodes>
          <leafValues>
            -2.5458255410194397e-01 4.2375674843788147e-01</leafValues></_>
        <_>
          <internalNodes>
            0 -1 50 -9.7821932286024094e-04</internalNodes>
          <leafValues>
            2.1505776047706604e-01 -4.7094205021858215e-01</leafValues></_>
        <_>
          <internalNodes>
            0 -1 130 2.3126766085624695e-02</internalNodes>
          <leafValues>
            -1.1032796651124954e-01 7.7747994661331177e-01</leafValues></_>
        <_>
          <internalNodes>
            0 -1 137 -5.5944854393601418e-03</internalNodes>
          <leafValues>
            -4.4789430499076843e-01 1.9488014280796051e-01</leafValues></_>
        <_>
          <internalNodes>
            0 -1 37 1.0161990940105170e-04</internalNodes>
          <leafValues>
            1.4009115099906921e-01 -6.5767109394073486e-01</leafValues></_>
        <_>
          <internalNodes>
            0 -1 180 -7.9401358962059021e-03</internalNodes>
          <leafValues>
            8.5652428865432739e-01 -1.0553268343210220e-01</leafValues></_>
        <_>
          <internalNodes>
            0 -1 232 -2.8591905720531940e-04</internalNodes>
          <leafValues>
            -8.6952239274978638e-01 1.0700032860040665e-01</leafValues></_>
        <_>
          <internalNodes>
            0 -1 75 1.0779005242511630e-03</internalNodes>
          <leafValues>
            -1.8691568076610565e-01 4.6728739142417908e-01</leafValues></_>
        <_>
          <internalNodes>
            0 -1 196 -2.0984334405511618e-03</internalNodes>
          <leafValues>
            4.9611443281173706e-01 -1.3661347329616547e-01</leafValues></_>
        <_>
          <internalNodes>
            0 -1 231 1.1384006589651108e-02</internalNodes>
          <leafValues>
            -1.3262327015399933e-01 6.5670752525329590e-01</leafValues></_>
        <_>
          <internalNodes>
            0 -1 106 1.5865851310081780e-04</internalNodes>
          <leafValues>
            -3.1012097001075745e-01 2.6530784368515015e-01</leafValues></_>
        <_>
          <internalNodes>
            0 -1 152 -3.6131575703620911e-02</internalNodes>
          <leafValues>
            8.2996064424514771e-01 -1.0436762869358063e-01</leafValues></_>
        <_>
          <internalNodes>
            0 -1 219 -2.5347843766212463e-03</internalNodes>
          <leafValues>
            -6.9147992134094238e-01 1.3191159069538116e-01</leafValues></_>
        <_>
          <internalNodes>
            0 -1 229 9.7462884150445461e-04</internalNodes>
          <leafValues>
            1.5780177712440491e-01 -4.9901103973388672e-01</leafValues></_>
        <_>
          <internalNodes>
            0 -1 79 6.1666574329137802e-03</internalNodes>
          <leafValues>
            -2.7948769927024841e-01 3.0930474400520325e-01</leafValues></_>
        <_>
          <internalNodes>
            0 -1 73 4.3396510183811188e-02</internalNodes>
          <leafValues>
            1.2089899927377701e-01 -6.9776737689971924e-01</leafValues></_>
        <_>
          <internalNodes>
            0 -1 58 1.8364837160333991e-04</internalNodes>
          <leafValues>
            1.0074670612812042e-01 -7.4058014154434204e-01</leafValues></_>
        <_>
          <internalNodes>
            0 -1 191 1.4179197605699301e-03</internalNodes>
          <leafValues>
            -1.1657880991697311e-01 7.3657816648483276e-01</leafValues></_>
        <_>
          <internalNodes>
            0 -1 25 2.0828903652727604e-03</internalNodes>
          <leafValues>
            1.1183102428913116e-01 -8.2100057601928711e-01</leafValues></_>
        <_>
          <internalNodes>
            0 -1 42 -1.6789330402389169e-05</internalNodes>
          <leafValues>
            2.9702150821685791e-01 -2.5973495841026306e-01</leafValues></_>
        <_>
          <internalNodes>
            0 -1 38 -9.0039486531168222e-04</internalNodes>
          <leafValues>
            4.1558444499969482e-01 -1.9516222178936005e-01</leafValues></_>
        <_>
          <internalNodes>
            0 -1 102 -3.9937272667884827e-03</internalNodes>
          <leafValues>
            2.3808439075946808e-01 -3.3105421066284180e-01</leafValues></_>
        <_>
          <internalNodes>
            0 -1 111 -4.0666540153324604e-03</internalNodes>
          <leafValues>
            4.3045306205749512e-01 -2.0738527178764343e-01</leafValues></_>
        <_>
          <internalNodes>
            0 -1 197 -1.9282933499198407e-04</internalNodes>
          <leafValues>
            -7.4287199974060059e-01 1.2632976472377777e-01</leafValues></_></weakClassifiers></_>
    <!-- stage 7 -->
    <_>
      <maxWeakCount>25</maxWeakCount>
      <stageThreshold>-5.2073854207992554e-01</stageThreshold>
      <weakClassifiers>
        <_>
          <internalNodes>
            0 -1 119 2.4140858650207520e-01</internalNodes>
          <leafValues>
            -1.1915535479784012e-01 7.1555554866790771e-01</leafValues></_>
        <_>
          <internalNodes>
            0 -1 113 -2.7041077613830566e-02</internalNodes>
          <leafValues>
            2.6258412003517151e-01 -4.6749201416969299e-01</leafValues></_>
        <_>
          <internalNodes>
            0 -1 275 -1.5557052101939917e-03</internalNodes>
          <leafValues>
            5.3167957067489624e-01 -1.6622722148895264e-01</leafValues></_>
        <_>
          <internalNodes>
            0 -1 260 -4.2980106081813574e-04</internalNodes>
          <leafValues>
            -4.7347646951675415e-01 1.7457170784473419e-01</leafValues></_>
        <_>
          <internalNodes>
            0 -1 83 3.8641365244984627e-04</internalNodes>
          <leafValues>
            1.3619613647460938e-01 -7.1182161569595337e-01</leafValues></_>
        <_>
          <internalNodes>
            0 -1 163 -8.3395926048979163e-04</internalNodes>
          <leafValues>
            7.7641183137893677e-01 -1.1865786463022232e-01</leafValues></_>
        <_>
          <internalNodes>
            0 -1 51 1.2455031974241138e-03</internalNodes>
          <leafValues>
            1.5550071001052856e-01 -6.0083931684494019e-01</leafValues></_>
        <_>
          <internalNodes>
            0 -1 59 6.6642801357374992e-06</internalNodes>
          <leafValues>
            -3.0124181509017944e-01 3.0091524124145508e-01</leafValues></_>
        <_>
          <internalNodes>
            0 -1 33 -1.1769840493798256e-03</internalNodes>
          <leafValues>
            -5.9586191177368164e-01 1.5106001496315002e-01</leafValues></_>
        <_>
          <internalNodes>
            0 -1 254 3.4909712849184871e-04</internalNodes>
          <leafValues>
            1.4527320861816406e-01 -5.3542405366897583e-01</leafValues></_>
        <_>
          <internalNodes>
            0 -1 97 5.9998396864102688e-06</internalNodes>
          <leafValues>
            -2.8485548496246338e-01 2.9730367660522461e-01</leafValues></_>
        <_>
          <internalNodes>
            0 -1 149 -6.1204191297292709e-04</internalNodes>
          <leafValues>
            -3.7882024049758911e-01 2.2972314059734344e-01</leafValues></_>
        <_>
          <internalNodes>
            0 -1 273 -1.4675589045509696e-03</internalNodes>
          <leafValues>
            -8.8671416044235229e-01 1.1396748572587967e-01</leafValues></_>
        <_>
          <internalNodes>
            0 -1 220 4.1127461008727551e-04</internalNodes>
          <leafValues>
            -1.7747327685356140e-01 5.9847611188888550e-01</leafValues></_>
        <_>
          <internalNodes>
            0 -1 46 -2.9830206185579300e-03</internalNodes>
          <leafValues>
            4.1425892710685730e-01 -1.9214697182178497e-01</leafValues></_>
        <_>
          <internalNodes>
            0 -1 11 -3.9498388767242432e-02</internalNodes>
          <leafValues>
            -5.7393550872802734e-01 1.5375199913978577e-01</leafValues></_>
        <_>
          <internalNodes>
            0 -1 133 -2.9099928215146065e-03</internalNodes>
          <leafValues>
            4.4908353686332703e-01 -1.9058635830879211e-01</leafValues></_>
        <_>
          <internalNodes>
            0 -1 239 1.2187883257865906e-03</internalNodes>
          <leafValues>
            -1.3473580777645111e-01 5.5855870246887207e-01</leafValues></_>
        <_>
          <internalNodes>
            0 -1 146 -1.3222460984252393e-04</internalNodes>
          <leafValues>
            -6.1275392770767212e-01 1.3382795453071594e-01</leafValues></_>
        <_>
          <internalNodes>
            0 -1 100 -7.4713411777338479e-06</internalNodes>
          <leafValues>
            2.3461143672466278e-01 -3.4376233816146851e-01</leafValues></_>
        <_>
          <internalNodes>
            0 -1 202 1.7659038712736219e-04</internalNodes>
          <leafValues>
            1.2515549361705780e-01 -7.4365276098251343e-01</leafValues></_>
        <_>
          <internalNodes>
            0 -1 265 -1.6450999828521162e-04</internalNodes>
          <leafValues>
            6.3942921161651611e-01 -1.5871801972389221e-01</leafValues></_>
        <_>
          <internalNodes>
            0 -1 234 5.6037991307675838e-03</internalNodes>
          <leafValues>
            -1.6793851554393768e-01 4.6209055185317993e-01</leafValues></_>
        <_>
          <internalNodes>
            0 -1 131 -8.6612120503559709e-04</internalNodes>
          <leafValues>
            4.0458989143371582e-01 -1.9917590916156769e-01</leafValues></_>
        <_>
          <internalNodes>
            0 -1 132 -3.1475382857024670e-03</internalNodes>
          <leafValues>
            7.1805715560913086e-01 -1.3429611921310425e-01</leafValues></_></weakClassifiers></_>
    <!-- stage 8 -->
    <_>
      <maxWeakCount>18</maxWeakCount>
      <stageThreshold>-3.4566092491149902e-01</stageThreshold>
      <weakClassifiers>
        <_>
          <internalNodes>
            0 -1 221 2.3539464920759201e-02</internalNodes>
          <leafValues>
            1.1023622006177902e-01 8.9719623327255249e-01</leafValues></_>
        <_>
          <internalNodes>
            0 -1 233 -2.7393712662160397e-03</internalNodes>
          <leafValues>
            -4.2589393258094788e-01 3.5011336207389832e-01</leafValues></_>
        <_>
          <internalNodes>
            0 -1 53 -8.5510201752185822e-03</internalNodes>
          <leafValues>
            5.1630556583404541e-01 -2.4178923666477203e-01</leafValues></_>
        <_>
          <internalNodes>
            0 -1 155 -1.8147404771298170e-03</internalNodes>
          <leafValues>
            6.6063112020492554e-01 -1.6579879820346832e-01</leafValues></_>
        <_>
          <internalNodes>
            0 -1 170 -6.8680215008498635e-06</internalNodes>
          <leafValues>
            3.6056655645370483e-01 -2.7938258647918701e-01</leafValues></_>
        <_>
          <internalNodes>
            0 -1 76 -1.5871237264946103e-03</internalNodes>
          <leafValues>
            9.2589360475540161e-01 -1.3268662989139557e-01</leafValues></_>
        <_>
          <internalNodes>
            0 -1 17 -2.1129597735125571e-04</internalNodes>
          <leafValues>
            -2.9226666688919067e-01 3.7246111035346985e-01</leafValues></_>
        <_>
          <internalNodes>
            0 -1 135 -6.7373790079727769e-04</internalNodes>
          <leafValues>
            -4.1139140725135803e-01 2.7856001257896423e-01</leafValues></_>
        <_>
          <internalNodes>
            0 -1 207 4.9817922990769148e-04</internalNodes>
          <leafValues>
            -1.3082848489284515e-01 8.2334035634994507e-01</leafValues></_>
        <_>
          <internalNodes>
            0 -1 226 5.7717040181159973e-03</internalNodes>
          <leafValues>
            -1.4053946733474731e-01 7.3456025123596191e-01</leafValues></_>
        <_>
          <internalNodes>
            0 -1 23 4.7626018524169922e-02</internalNodes>
          <leafValues>
            1.6214069724082947e-01 -7.4553388357162476e-01</leafValues></_>
        <_>
          <internalNodes>
            0 -1 169 3.5423124209046364e-03</internalNodes>
          <leafValues>
            -1.6554008424282074e-01 7.0892953872680664e-01</leafValues></_>
        <_>
          <internalNodes>
            0 -1 259 2.1644160151481628e-03</internalNodes>
          <leafValues>
            -9.7549356520175934e-02 9.0397012233734131e-01</leafValues></_>
        <_>
          <internalNodes>
            0 -1 242 -2.4803972337394953e-04</internalNodes>
          <leafValues>
            -6.0471403598785400e-01 2.1687436103820801e-01</leafValues></_>
        <_>
          <internalNodes>
            0 -1 117 -1.6255595255643129e-04</internalNodes>
          <leafValues>
            -7.3808956146240234e-01 1.3024117052555084e-01</leafValues></_>
        <_>
          <internalNodes>
            0 -1 13 7.6495856046676636e-04</internalNodes>
          <leafValues>
            -2.0797869563102722e-01 6.0756093263626099e-01</leafValues></_>
        <_>
          <internalNodes>
            0 -1 269 8.3756679669022560e-04</internalNodes>
          <leafValues>
            -2.0792107284069061e-01 5.3839415311813354e-01</leafValues></_>
        <_>
          <internalNodes>
            0 -1 142 -5.7398870012548286e-06</internalNodes>
          <leafValues>
            3.7944224476814270e-01 -2.9328206181526184e-01</leafValues></_></weakClassifiers></_>
    <!-- stage 9 -->
    <_>
      <maxWeakCount>17</maxWeakCount>
      <stageThreshold>-6.5949387848377228e-02</stageThreshold>
      <weakClassifiers>
        <_>
          <internalNodes>
            0 -1 7 6.2271989881992340e-02</internalNodes>
          <leafValues>
            1.5175096690654755e-01 8.0213904380798340e-01</leafValues></_>
        <_>
          <internalNodes>
            0 -1 78 -3.5121086984872818e-03</internalNodes>
          <leafValues>
            5.0210195779800415e-01 -3.1657218933105469e-01</leafValues></_>
        <_>
          <internalNodes>
            0 -1 258 -3.8122539408504963e-03</internalNodes>
          <leafValues>
            6.9231164455413818e-01 -1.6712605953216553e-01</leafValues></_>
        <_>
          <internalNodes>
            0 -1 138 -1.5981070697307587e-02</internalNodes>
          <leafValues>
            -6.4077186584472656e-01 1.8383850157260895e-01</leafValues></_>
        <_>
          <internalNodes>
            0 -1 49 -5.7070617913268507e-05</internalNodes>
          <leafValues>
            -5.3678739070892334e-01 2.4017539620399475e-01</leafValues></_>
        <_>
          <internalNodes>
            0 -1 172 1.3439565896987915e-02</internalNodes>
          <leafValues>
            -2.0536288619041443e-01 7.4147278070449829e-01</leafValues></_>
        <_>
          <internalNodes>
            0 -1 188 -4.2904319707304239e-04</internalNodes>
          <leafValues>
            -3.7544026970863342e-01 3.5063815116882324e-01</leafValues></_>
        <_>
          <internalNodes>
            0 -1 250 -3.4607569687068462e-03</internalNodes>
          <leafValues>
            5.3171586990356445e-01 -2.2030214965343475e-01</leafValues></_>
        <_>
          <internalNodes>
            0 -1 40 3.7397027015686035e-02</internalNodes>
          <leafValues>
            -1.5139685571193695e-01 7.3705393075942993e-01</leafValues></_>
        <_>
          <internalNodes>
            0 -1 177 3.2098378869704902e-04</internalNodes>
          <leafValues>
            2.1714055538177490e-01 -6.1788320541381836e-01</leafValues></_>
        <_>
          <internalNodes>
            0 -1 153 -1.3244603760540485e-03</internalNodes>
          <leafValues>
            3.5817787051200867e-01 -3.5493966937065125e-01</leafValues></_>
        <_>
          <internalNodes>
            0 -1 70 4.1200791019946337e-04</internalNodes>
          <leafValues>
            2.5493767857551575e-01 -4.7068825364112854e-01</leafValues></_>
        <_>
          <internalNodes>
            0 -1 236 -5.1232951227575541e-04</internalNodes>
          <leafValues>
            5.2570408582687378e-01 -2.4020664393901825e-01</leafValues></_>
        <_>
          <internalNodes>
            0 -1 241 -6.5419059246778488e-03</internalNodes>
          <leafValues>
            9.2074394226074219e-01 -1.4251133799552917e-01</leafValues></_>
        <_>
          <internalNodes>
            0 -1 85 1.6376078128814697e-03</internalNodes>
          <leafValues>
            3.1316235661506653e-01 -4.0636622905731201e-01</leafValues></_>
        <_>
          <internalNodes>
            0 -1 248 -4.5687553938478231e-04</internalNodes>
          <leafValues>
            7.3037028312683105e-01 -1.5597122907638550e-01</leafValues></_>
        <_>
          <internalNodes>
            0 -1 129 3.3246979000978172e-05</internalNodes>
          <leafValues>
            -3.4244734048843384e-01 3.2894226908683777e-01</leafValues></_></weakClassifiers></_>
    <!-- stage 10 -->
    <_>
      <maxWeakCount>18</maxWeakCount>
      <stageThreshold>-8.7132513523101807e-02</stageThreshold>
      <weakClassifiers>
        <_>
          <internalNodes>
            0 -1 30 3.4466713666915894e-02</internalNodes>
          <leafValues>
            2.5568181276321411e-01 8.5915493965148926e-01</leafValues></_>
        <_>
          <internalNodes>
            0 -1 144 1.1609800159931183e-02</internalNodes>
          <leafValues>
            -2.1193332970142365e-01 5.1103949546813965e-01</leafValues></_>
        <_>
          <internalNodes>
            0 -1 93 -1.0309100616723299e-03</internalNodes>
          <leafValues>
            7.1291625499725342e-01 -1.5699581801891327e-01</leafValues></_>
        <_>
          <internalNodes>
            0 -1 88 -1.2259719893336296e-02</internalNodes>
          <leafValues>
            4.3674236536026001e-01 -2.6235955953598022e-01</leafValues></_>
        <_>
          <internalNodes>
            0 -1 19 -2.7618757449090481e-03</internalNodes>
          <leafValues>
            3.5821175575256348e-01 -3.6442899703979492e-01</leafValues></_>
        <_>
          <internalNodes>
            0 -1 256 4.6029407531023026e-03</internalNodes>
          <leafValues>
            -2.2381386160850525e-01 5.8414101600646973e-01</leafValues></_>
        <_>
          <internalNodes>
            0 -1 44 1.8193987198174000e-03</internalNodes>
          <leafValues>
            -2.0098856091499329e-01 5.1110976934432983e-01</leafValues></_>
        <_>
          <internalNodes>
            0 -1 69 3.0322629027068615e-03</internalNodes>
          <leafValues>
            -1.7768134176731110e-01 8.0705022811889648e-01</leafValues></_>
        <_>
          <internalNodes>
            0 -1 168 -6.4118800219148397e-04</internalNodes>
          <leafValues>
            5.0011360645294189e-01 -2.2338925302028656e-01</leafValues></_>
        <_>
          <internalNodes>
            0 -1 255 1.3819173909723759e-04</internalNodes>
          <leafValues>
            2.8830412030220032e-01 -4.6181720495223999e-01</leafValues></_>
        <_>
          <internalNodes>
            0 -1 96 6.2217854429036379e-04</internalNodes>
          <leafValues>
            1.7362067103385925e-01 -8.1645888090133667e-01</leafValues></_>
        <_>
          <internalNodes>
            0 -1 228 -1.1595285031944513e-03</internalNodes>
          <leafValues>
            9.1184002161026001e-01 -1.8667063117027283e-01</leafValues></_>
        <_>
          <internalNodes>
            0 -1 245 -7.0608058013021946e-04</internalNodes>
          <leafValues>
            5.1105576753616333e-01 -1.9634672999382019e-01</leafValues></_>
        <_>
          <internalNodes>
            0 -1 211 -9.6318554133176804e-03</internalNodes>
          <leafValues>
            5.7992708683013916e-01 -2.3040738701820374e-01</leafValues></_>
        <_>
          <internalNodes>
            0 -1 272 9.2861497250851244e-05</internalNodes>
          <leafValues>
            2.3306030035018921e-01 -5.4089564085006714e-01</leafValues></_>
        <_>
          <internalNodes>
            0 -1 91 -6.1046145856380463e-04</internalNodes>
          <leafValues>
            4.5231753587722778e-01 -2.6425874233245850e-01</leafValues></_>
        <_>
          <internalNodes>
            0 -1 43 -1.3749084901064634e-03</internalNodes>
          <leafValues>
            6.8714851140975952e-01 -1.7349888384342194e-01</leafValues></_>
        <_>
          <internalNodes>
            0 -1 210 -3.9263912476599216e-03</internalNodes>
          <leafValues>
            5.9890091419219971e-01 -1.9057415425777435e-01</leafValues></_></weakClassifiers></_>
    <!-- stage 11 -->
    <_>
      <maxWeakCount>17</maxWeakCount>
      <stageThreshold>1.8249399960041046e-02</stageThreshold>
      <weakClassifiers>
        <_>
          <internalNodes>
            0 -1 66 -4.9246832728385925e-02</internalNodes>
          <leafValues>
            -8.0952382087707520e-01 7.0070421695709229e-01</leafValues></_>
        <_>
          <internalNodes>
            0 -1 64 -6.8907178938388824e-03</internalNodes>
          <leafValues>
            6.6515314579010010e-01 -1.2043783813714981e-01</leafValues></_>
        <_>
          <internalNodes>
            0 -1 14 1.2602569535374641e-02</internalNodes>
          <leafValues>
            -1.2559597194194794e-01 1.</leafValues></_>
        <_>
          <internalNodes>
            0 -1 47 -1.4465142157860100e-04</internalNodes>
          <leafValues>
            -2.8742474317550659e-01 4.4524502754211426e-01</leafValues></_>
        <_>
          <internalNodes>
            0 -1 167 -1.4418413047678769e-04</internalNodes>
          <leafValues>
            8.9118140935897827e-01 -1.6008131206035614e-01</leafValues></_>
        <_>
          <internalNodes>
            0 -1 123 8.2091509830206633e-04</internalNodes>
          <leafValues>
            -2.6386541128158569e-01 5.3453266620635986e-01</leafValues></_>
        <_>
          <internalNodes>
            0 -1 145 7.4972922448068857e-04</internalNodes>
          <leafValues>
            3.2301247119903564e-01 -4.8491692543029785e-01</leafValues></_>
        <_>
          <internalNodes>
            0 -1 215 -2.1158112213015556e-04</internalNodes>
          <leafValues>
            -3.3165842294692993e-01 4.4407573342323303e-01</leafValues></_>
        <_>
          <internalNodes>
            0 -1 243 -2.0253714174032211e-02</internalNodes>
          <leafValues>
            -7.0296955108642578e-01 2.3199865221977234e-01</leafValues></_>
        <_>
          <internalNodes>
            0 -1 253 1.0071671567857265e-02</internalNodes>
          <leafValues>
            2.0264543592929840e-01 -6.9533985853195190e-01</leafValues></_>
        <_>
          <internalNodes>
            0 -1 81 8.6914189159870148e-03</internalNodes>
          <leafValues>
            3.0953186750411987e-01 -4.7502762079238892e-01</leafValues></_>
        <_>
          <internalNodes>
            0 -1 267 -2.0776086021214724e-03</internalNodes>
          <leafValues>
            8.2855075597763062e-01 -1.9458936154842377e-01</leafValues></_>
        <_>
          <internalNodes>
            0 -1 217 -1.8453425727784634e-03</internalNodes>
          <leafValues>
            8.7529921531677246e-01 -1.3651438057422638e-01</leafValues></_>
        <_>
          <internalNodes>
            0 -1 15 -1.5345509164035320e-03</internalNodes>
          <leafValues>
            9.5996993780136108e-01 -1.0195932537317276e-01</leafValues></_>
        <_>
          <internalNodes>
            0 -1 164 -2.0761506166309118e-03</internalNodes>
          <leafValues>
            8.8870406150817871e-01 -1.1470340937376022e-01</leafValues></_>
        <_>
          <internalNodes>
            0 -1 36 2.3416828480549157e-04</internalNodes>
          <leafValues>
            3.3243921399116516e-01 -4.4057521224021912e-01</leafValues></_>
        <_>
          <internalNodes>
            0 -1 127 -1.3760612346231937e-03</internalNodes>
          <leafValues>
            9.2597776651382446e-01 -1.7102415859699249e-01</leafValues></_></weakClassifiers></_>
    <!-- stage 12 -->
    <_>
      <maxWeakCount>15</maxWeakCount>
      <stageThreshold>9.0228118002414703e-02</stageThreshold>
      <weakClassifiers>
        <_>
          <internalNodes>
            0 -1 174 -1.9818689674139023e-02</internalNodes>
          <leafValues>
            -8.8235294818878174e-01 7.0422536134719849e-01</leafValues></_>
        <_>
          <internalNodes>
            0 -1 201 -9.9895814855699427e-06</internalNodes>
          <leafValues>
            5.1508462429046631e-01 -4.5329043269157410e-01</leafValues></_>
        <_>
          <internalNodes>
            0 -1 165 2.1466128528118134e-02</internalNodes>
          <leafValues>
            -2.8665184974670410e-01 7.0677834749221802e-01</leafValues></_>
        <_>
          <internalNodes>
            0 -1 6 -4.1499789804220200e-03</internalNodes>
          <leafValues>
            6.5041023492813110e-01 -2.7052000164985657e-01</leafValues></_>
        <_>
          <internalNodes>
            0 -1 41 -1.0387753136456013e-03</internalNodes>
          <leafValues>
            6.9260430335998535e-01 -2.8019279241561890e-01</leafValues></_>
        <_>
          <internalNodes>
            0 -1 18 3.0808744486421347e-03</internalNodes>
          <leafValues>
            -1.9048206508159637e-01 8.0739694833755493e-01</leafValues></_>
        <_>
          <internalNodes>
            0 -1 65 -3.6839104723185301e-04</internalNodes>
          <leafValues>
            5.6028813123703003e-01 -2.5851914286613464e-01</leafValues></_>
        <_>
          <internalNodes>
            0 -1 195 -2.4813213385641575e-03</internalNodes>
          <leafValues>
            8.8474863767623901e-01 -1.6379266977310181e-01</leafValues></_>
        <_>
          <internalNodes>
            0 -1 274 4.7328759683296084e-04</internalNodes>
          <leafValues>
            3.0279898643493652e-01 -6.1397206783294678e-01</leafValues></_>
        <_>
          <internalNodes>
            0 -1 71 -3.9966689655557275e-04</internalNodes>
          <leafValues>
            -5.9371435642242432e-01 3.0775099992752075e-01</leafValues></_>
        <_>
          <internalNodes>
            0 -1 10 -4.0484010241925716e-03</internalNodes>
          <leafValues>
            7.4300175905227661e-01 -2.3445069789886475e-01</leafValues></_>
        <_>
          <internalNodes>
            0 -1 194 1.7736556401359849e-05</internalNodes>
          <leafValues>
            -2.6597881317138672e-01 5.4267579317092896e-01</leafValues></_>
        <_>
          <internalNodes>
            0 -1 90 -1.7214446415891871e-05</internalNodes>
          <leafValues>
            6.3344126939773560e-01 -2.5961455702781677e-01</leafValues></_>
        <_>
          <internalNodes>
            0 -1 5 -6.9569987244904041e-03</internalNodes>
          <leafValues>
            -7.3915153741836548e-01 2.7952700853347778e-01</leafValues></_>
        <_>
          <internalNodes>
            0 -1 230 -1.0540020593907684e-04</internalNodes>
          <leafValues>
            -6.2776356935501099e-01 2.5566196441650391e-01</leafValues></_></weakClassifiers></_>
    <!-- stage 13 -->
    <_>
      <maxWeakCount>14</maxWeakCount>
      <stageThreshold>-5.4009318351745605e-02</stageThreshold>
      <weakClassifiers>
        <_>
          <internalNodes>
            0 -1 20 -3.3257625997066498e-02</internalNodes>
          <leafValues>
            -8.5000002384185791e-01 6.9420033693313599e-01</leafValues></_>
        <_>
          <internalNodes>
            0 -1 99 -6.6157844848930836e-03</internalNodes>
          <leafValues>
            4.4968566298484802e-01 -6.1533373594284058e-01</leafValues></_>
        <_>
          <internalNodes>
            0 -1 141 -6.8317572586238384e-03</internalNodes>
          <leafValues>
            7.8159022331237793e-01 -3.0021542310714722e-01</leafValues></_>
        <_>
          <internalNodes>
            0 -1 190 -2.4837084114551544e-02</internalNodes>
          <leafValues>
            6.2713426351547241e-01 -2.3978506028652191e-01</leafValues></_>
        <_>
          <internalNodes>
            0 -1 208 -8.5025205044075847e-04</internalNodes>
          <leafValues>
            7.9547905921936035e-01 -1.9873741269111633e-01</leafValues></_>
        <_>
          <internalNodes>
            0 -1 128 -4.6568675315938890e-05</internalNodes>
          <leafValues>
            4.7383281588554382e-01 -3.3710014820098877e-01</leafValues></_>
        <_>
          <internalNodes>
            0 -1 214 7.7362498268485069e-04</internalNodes>
          <leafValues>
            4.7688868641853333e-01 -3.5269010066986084e-01</leafValues></_>
        <_>
          <internalNodes>
            0 -1 45 -1.6940832210821100e-05</internalNodes>
          <leafValues>
            4.1800799965858459e-01 -4.1649422049522400e-01</leafValues></_>
        <_>
          <internalNodes>
            0 -1 8 5.9741211589425802e-04</internalNodes>
          <leafValues>
            2.8390470147132874e-01 -6.1690425872802734e-01</leafValues></_>
        <_>
          <internalNodes>
            0 -1 158 -4.8968940973281860e-04</internalNodes>
          <leafValues>
            8.0954408645629883e-01 -2.1067897975444794e-01</leafValues></_>
        <_>
          <internalNodes>
            0 -1 187 -1.6074287123046815e-04</internalNodes>
          <leafValues>
            4.9491298198699951e-01 -2.9136118292808533e-01</leafValues></_>
        <_>
          <internalNodes>
            0 -1 178 -1.3229581527411938e-03</internalNodes>
          <leafValues>
            -3.3536463975906372e-01 4.2441833019256592e-01</leafValues></_>
        <_>
          <internalNodes>
            0 -1 154 6.0719804605469108e-04</internalNodes>
          <leafValues>
            2.2273348271846771e-01 -7.1286118030548096e-01</leafValues></_>
        <_>
          <internalNodes>
            0 -1 87 -1.7775481101125479e-03</internalNodes>
          <leafValues>
            -4.3210095167160034e-01 3.5121142864227295e-01</leafValues></_></weakClassifiers></_>
    <!-- stage 14 -->
    <_>
      <maxWeakCount>10</maxWeakCount>
      <stageThreshold>4.3563997745513916e-01</stageThreshold>
      <weakClassifiers>
        <_>
          <internalNodes>
            0 -1 21 -4.4638093560934067e-02</internalNodes>
          <leafValues>
            -7.6923079788684845e-02 8.5685884952545166e-01</leafValues></_>
        <_>
          <internalNodes>
            0 -1 160 8.7244014139287174e-05</internalNodes>
          <leafValues>
            -2.3354457318782806e-01 7.1288204193115234e-01</leafValues></_>
        <_>
          <internalNodes>
            0 -1 28 -7.4292076751589775e-03</internalNodes>
          <leafValues>
            7.6289010047912598e-01 -2.4241690337657928e-01</leafValues></_>
        <_>
          <internalNodes>
            0 -1 175 2.0848391577601433e-03</internalNodes>
          <leafValues>
            -2.9951345920562744e-01 6.6789746284484863e-01</leafValues></_>
        <_>
          <internalNodes>
            0 -1 251 -8.7092694593593478e-04</internalNodes>
          <leafValues>
            -3.5320335626602173e-01 6.3664281368255615e-01</leafValues></_>
        <_>
          <internalNodes>
            0 -1 173 -1.7529297110741027e-05</internalNodes>
          <leafValues>
            6.2156897783279419e-01 -4.4321578741073608e-01</leafValues></_>
        <_>
          <internalNodes>
            0 -1 262 -9.0114581325906329e-06</internalNodes>
          <leafValues>
            5.7925212383270264e-01 -4.5392650365829468e-01</leafValues></_>
        <_>
          <internalNodes>
            0 -1 126 -1.4900162816047668e-01</internalNodes>
          <leafValues>
            -5.1335430145263672e-01 5.2416247129440308e-01</leafValues></_>
        <_>
          <internalNodes>
            0 -1 161 -1.8736106576398015e-03</internalNodes>
          <leafValues>
            8.7506496906280518e-01 -2.7825126051902771e-01</leafValues></_>
        <_>
          <internalNodes>
            0 -1 198 -2.3780320771038532e-04</internalNodes>
          <leafValues>
            -5.4537248611450195e-01 4.3050697445869446e-01</leafValues></_></weakClassifiers></_>
    <!-- stage 15 -->
    <_>
      <maxWeakCount>9</maxWeakCount>
      <stageThreshold>-8.4415346384048462e-02</stageThreshold>
      <weakClassifiers>
        <_>
          <internalNodes>
            0 -1 26 1.5995457768440247e-01</internalNodes>
          <leafValues>
            8.3681213855743408e-01 -9.0476191043853760e-01</leafValues></_>
        <_>
          <internalNodes>
            0 -1 67 1.1392991989850998e-02</internalNodes>
          <leafValues>
            6.7732352018356323e-01 -3.3715739846229553e-01</leafValues></_>
        <_>
          <internalNodes>
            0 -1 77 3.8988902815617621e-04</internalNodes>
          <leafValues>
            5.8600270748138428e-01 -3.7882485985755920e-01</leafValues></_>
        <_>
          <internalNodes>
            0 -1 213 7.3684786912053823e-04</internalNodes>
          <leafValues>
            4.2829725146293640e-01 -5.9432077407836914e-01</leafValues></_>
        <_>
          <internalNodes>
            0 -1 249 1.8506569904275239e-04</internalNodes>
          <leafValues>
            -2.6602721214294434e-01 8.7917232513427734e-01</leafValues></_>
        <_>
          <internalNodes>
            0 -1 156 -2.8114690212532878e-04</internalNodes>
          <leafValues>
            7.8983199596405029e-01 -3.0089107155799866e-01</leafValues></_>
        <_>
          <internalNodes>
            0 -1 61 9.4223787527880631e-06</internalNodes>
          <leafValues>
            -2.7260875701904297e-01 7.7684581279754639e-01</leafValues></_>
        <_>
          <internalNodes>
            0 -1 225 9.9589955061674118e-04</internalNodes>
          <leafValues>
            4.2378601431846619e-01 -6.0522729158401489e-01</leafValues></_>
        <_>
          <internalNodes>
            0 -1 4 -1.0866189002990723e-01</internalNodes>
          <leafValues>
            8.7281674146652222e-01 -2.8590646386146545e-01</leafValues></_></weakClassifiers></_></stages>
  <features>
    <_>
      <rects>
        <_>
          0 0 4 3 -1.</_>
        <_>
          2 0 2 3 2.</_></rects>
      <tilted>0</tilted></_>
    <_>
      <rects>
        <_>
          0 0 27 2 -1.</_>
        <_>
          0 1 27 1 2.</_></rects>
      <tilted>0</tilted></_>
    <_>
      <rects>
        <_>
          0 0 32 2 -1.</_>
        <_>
          0 1 32 1 2.</_></rects>
      <tilted>0</tilted></_>
    <_>
      <rects>
        <_>
          0 1 16 5 -1.</_>
        <_>
          8 1 8 5 2.</_></rects>
      <tilted>0</tilted></_>
    <_>
      <rects>
        <_>
          0 1 47 15 -1.</_>
        <_>
          0 6 47 5 3.</_></rects>
      <tilted>0</tilted></_>
    <_>
      <rects>
        <_>
          0 2 1 20 -1.</_>
        <_>
          0 12 1 10 2.</_></rects>
      <tilted>0</tilted></_>
    <_>
      <rects>
        <_>
          0 2 6 20 -1.</_>
        <_>
          0 2 3 10 2.</_>
        <_>
          3 12 3 10 2.</_></rects>
      <tilted>0</tilted></_>
    <_>
      <rects>
        <_>
          0 2 45 7 -1.</_>
        <_>
          15 2 15 7 3.</_></rects>
      <tilted>0</tilted></_>
    <_>
      <rects>
        <_>
          0 2 36 12 -1.</_>
        <_>
          0 8 36 6 2.</_></rects>
      <tilted>0</tilted></_>
    <_>
      <rects>
        <_>
          0 3 1 6 -1.</_>
        <_>
          0 5 1 2 3.</_></rects>
      <tilted>0</tilted></_>
    <_>
      <rects>
        <_>
          0 4 6 17 -1.</_>
        <_>
          2 4 2 17 3.</_></rects>
      <tilted>0</tilted></_>
    <_>
      <rects>
        <_>
          0 4 12 26 -1.</_>
        <_>
          0 4 6 13 2.</_>
        <_>
          6 17 6 13 2.</_></rects>
      <tilted>0</tilted></_>
    <_>
      <rects>
        <_>
          0 5 1 12 -1.</_>
        <_>
          0 11 1 6 2.</_></rects>
      <tilted>0</tilted></_>
    <_>
      <rects>
        <_>
          0 5 2 7 -1.</_>
        <_>
          1 5 1 7 2.</_></rects>
      <tilted>0</tilted></_>
    <_>
      <rects>
        <_>
          0 5 12 7 -1.</_>
        <_>
          4 5 4 7 3.</_></rects>
      <tilted>0</tilted></_>
    <_>
      <rects>
        <_>
          0 6 6 2 -1.</_>
        <_>
          2 6 2 2 3.</_></rects>
      <tilted>0</tilted></_>
    <_>
      <rects>
        <_>
          0 6 6 18 -1.</_>
        <_>
          2 6 2 18 3.</_></rects>
      <tilted>0</tilted></_>
    <_>
      <rects>
        <_>
          0 6 3 6 -1.</_>
        <_>
          0 8 3 2 3.</_></rects>
      <tilted>0</tilted></_>
    <_>
      <rects>
        <_>
          0 6 6 5 -1.</_>
        <_>
          3 6 3 5 2.</_></rects>
      <tilted>0</tilted></_>
    <_>
      <rects>
        <_>
          0 6 12 10 -1.</_>
        <_>
          0 11 12 5 2.</_></rects>
      <tilted>0</tilted></_>
    <_>
      <rects>
        <_>
          0 8 3 21 -1.</_>
        <_>
          0 15 3 7 3.</_></rects>
      <tilted>0</tilted></_>
    <_>
      <rects>
        <_>
          0 8 28 8 -1.</_>
        <_>
          0 12 28 4 2.</_></rects>
      <tilted>0</tilted></_>
    <_>
      <rects>
        <_>
          0 9 12 4 -1.</_>
        <_>
          4 9 4 4 3.</_></rects>
      <tilted>0</tilted></_>
    <_>
      <rects>
        <_>
          0 15 38 14 -1.</_>
        <_>
          0 15 19 7 2.</_>
        <_>
          19 22 19 7 2.</_></rects>
      <tilted>0</tilted></_>
    <_>
      <rects>
        <_>
          0 16 12 6 -1.</_>
        <_>
          4 16 4 6 3.</_></rects>
      <tilted>0</tilted></_>
    <_>
      <rects>
        <_>
          0 16 8 3 -1.</_>
        <_>
          0 17 8 1 3.</_></rects>
      <tilted>0</tilted></_>
    <_>
      <rects>
        <_>
          0 16 44 5 -1.</_>
        <_>
          22 16 22 5 2.</_></rects>
      <tilted>0</tilted></_>
    <_>
      <rects>
        <_>
          0 17 44 7 -1.</_>
        <_>
          22 17 22 7 2.</_></rects>
      <tilted>0</tilted></_>
    <_>
      <rects>
        <_>
          0 18 12 8 -1.</_>
        <_>
          4 18 4 8 3.</_></rects>
      <tilted>0</tilted></_>
    <_>
      <rects>
        <_>
          0 21 24 10 -1.</_>
        <_>
          0 21 12 5 2.</_>
        <_>
          12 26 12 5 2.</_></rects>
      <tilted>0</tilted></_>
    <_>
      <rects>
        <_>
          0 21 45 6 -1.</_>
        <_>
          15 21 15 6 3.</_></rects>
      <tilted>0</tilted></_>
    <_>
      <rects>
        <_>
          0 25 2 6 -1.</_>
        <_>
          1 25 1 6 2.</_></rects>
      <tilted>0</tilted></_>
    <_>
      <rects>
        <_>
          0 25 6 3 -1.</_>
        <_>
          3 25 3 3 2.</_></rects>
      <tilted>0</tilted></_>
    <_>
      <rects>
        <_>
          0 26 3 6 -1.</_>
        <_>
          0 28 3 2 3.</_></rects>
      <tilted>0</tilted></_>
    <_>
      <rects>
        <_>
          0 28 1 4 -1.</_>
        <_>
          0 30 1 2 2.</_></rects>
      <tilted>0</tilted></_>
    <_>
      <rects>
        <_>
          0 29 8 3 -1.</_>
        <_>
          4 29 4 3 2.</_></rects>
      <tilted>0</tilted></_>
    <_>
      <rects>
        <_>
          0 30 6 2 -1.</_>
        <_>
          0 30 3 1 2.</_>
        <_>
          3 31 3 1 2.</_></rects>
      <tilted>0</tilted></_>
    <_>
      <rects>
        <_>
          0 31 2 1 -1.</_>
        <_>
          1 31 1 1 2.</_></rects>
      <tilted>0</tilted></_>
    <_>
      <rects>
        <_>
          1 0 2 14 -1.</_>
        <_>
          1 0 1 7 2.</_>
        <_>
          2 7 1 7 2.</_></rects>
      <tilted>0</tilted></_>
    <_>
      <rects>
        <_>
          1 0 14 6 -1.</_>
        <_>
          8 0 7 6 2.</_></rects>
      <tilted>0</tilted></_>
    <_>
      <rects>
        <_>
          1 4 45 2 -1.</_>
        <_>
          16 4 15 2 3.</_></rects>
      <tilted>0</tilted></_>
    <_>
      <rects>
        <_>
          1 5 4 6 -1.</_>
        <_>
          3 5 2 6 2.</_></rects>
      <tilted>0</tilted></_>
    <_>
      <rects>
        <_>
          1 15 2 2 -1.</_>
        <_>
          1 15 1 1 2.</_>
        <_>
          2 16 1 1 2.</_></rects>
      <tilted>0</tilted></_>
    <_>
      <rects>
        <_>
          1 16 4 6 -1.</_>
        <_>
          1 16 2 3 2.</_>
        <_>
          3 19 2 3 2.</_></rects>
      <tilted>0</tilted></_>
    <_>
      <rects>
        <_>
          1 19 6 12 -1.</_>
        <_>
          1 19 3 6 2.</_>
        <_>
          4 25 3 6 2.</_></rects>
      <tilted>0</tilted></_>
    <_>
      <rects>
        <_>
          1 20 2 1 -1.</_>
        <_>
          2 20 1 1 2.</_></rects>
      <tilted>0</tilted></_>
    <_>
      <rects>
        <_>
          1 20 10 6 -1.</_>
        <_>
          1 20 5 3 2.</_>
        <_>
          6 23 5 3 2.</_></rects>
      <tilted>0</tilted></_>
    <_>
      <rects>
        <_>
          1 21 4 8 -1.</_>
        <_>
          1 21 2 4 2.</_>
        <_>
          3 25 2 4 2.</_></rects>
      <tilted>0</tilted></_>
    <_>
      <rects>
        <_>
          1 28 8 1 -1.</_>
        <_>
          5 28 4 1 2.</_></rects>
      <tilted>0</tilted></_>
    <_>
      <rects>
        <_>
          1 30 1 2 -1.</_>
        <_>
          1 31 1 1 2.</_></rects>
      <tilted>0</tilted></_>
    <_>
      <rects>
        <_>
          1 30 16 1 -1.</_>
        <_>
          9 30 8 1 2.</_></rects>
      <tilted>0</tilted></_>
    <_>
      <rects>
        <_>
          2 0 9 1 -1.</_>
        <_>
          5 0 3 1 3.</_></rects>
      <tilted>0</tilted></_>
    <_>
      <rects>
        <_>
          2 1 30 5 -1.</_>
        <_>
          12 1 10 5 3.</_></rects>
      <tilted>0</tilted></_>
    <_>
      <rects>
        <_>
          2 7 18 3 -1.</_>
        <_>
          8 7 6 3 3.</_></rects>
      <tilted>0</tilted></_>
    <_>
      <rects>
        <_>
          2 13 4 8 -1.</_>
        <_>
          2 13 2 4 2.</_>
        <_>
          4 17 2 4 2.</_></rects>
      <tilted>0</tilted></_>
    <_>
      <rects>
        <_>
          2 17 44 11 -1.</_>
        <_>
          24 17 22 11 2.</_></rects>
      <tilted>0</tilted></_>
    <_>
      <rects>
        <_>
          2 26 34 6 -1.</_>
        <_>
          2 26 17 3 2.</_>
        <_>
          19 29 17 3 2.</_></rects>
      <tilted>0</tilted></_>
    <_>
      <rects>
        <_>
          2 28 3 2 -1.</_>
        <_>
          2 29 3 1 2.</_></rects>
      <tilted>0</tilted></_>
    <_>
      <rects>
        <_>
          2 31 3 1 -1.</_>
        <_>
          3 31 1 1 3.</_></rects>
      <tilted>0</tilted></_>
    <_>
      <rects>
        <_>
          3 0 2 4 -1.</_>
        <_>
          4 0 1 4 2.</_></rects>
      <tilted>0</tilted></_>
    <_>
      <rects>
        <_>
          3 0 18 6 -1.</_>
        <_>
          3 2 18 2 3.</_></rects>
      <tilted>0</tilted></_>
    <_>
      <rects>
        <_>
          3 1 2 8 -1.</_>
        <_>
          3 1 1 4 2.</_>
        <_>
          4 5 1 4 2.</_></rects>
      <tilted>0</tilted></_>
    <_>
      <rects>
        <_>
          3 1 16 16 -1.</_>
        <_>
          3 9 16 8 2.</_></rects>
      <tilted>0</tilted></_>
    <_>
      <rects>
        <_>
          3 4 42 1 -1.</_>
        <_>
          17 4 14 1 3.</_></rects>
      <tilted>0</tilted></_>
    <_>
      <rects>
        <_>
          3 6 18 3 -1.</_>
        <_>
          9 6 6 3 3.</_></rects>
      <tilted>0</tilted></_>
    <_>
      <rects>
        <_>
          3 7 11 3 -1.</_>
        <_>
          3 8 11 1 3.</_></rects>
      <tilted>0</tilted></_>
    <_>
      <rects>
        <_>
          3 7 15 10 -1.</_>
        <_>
          3 12 15 5 2.</_></rects>
      <tilted>0</tilted></_>
    <_>
      <rects>
        <_>
          3 7 44 6 -1.</_>
        <_>
          3 7 22 3 2.</_>
        <_>
          25 10 22 3 2.</_></rects>
      <tilted>0</tilted></_>
    <_>
      <rects>
        <_>
          3 19 8 4 -1.</_>
        <_>
          7 19 4 4 2.</_></rects>
      <tilted>0</tilted></_>
    <_>
      <rects>
        <_>
          3 23 12 3 -1.</_>
        <_>
          9 23 6 3 2.</_></rects>
      <tilted>0</tilted></_>
    <_>
      <rects>
        <_>
          3 29 6 2 -1.</_>
        <_>
          5 29 2 2 3.</_></rects>
      <tilted>0</tilted></_>
    <_>
      <rects>
        <_>
          4 0 4 2 -1.</_>
        <_>
          6 0 2 2 2.</_></rects>
      <tilted>0</tilted></_>
    <_>
      <rects>
        <_>
          4 0 12 2 -1.</_>
        <_>
          4 1 12 1 2.</_></rects>
      <tilted>0</tilted></_>
    <_>
      <rects>
        <_>
          4 0 27 16 -1.</_>
        <_>
          4 8 27 8 2.</_></rects>
      <tilted>0</tilted></_>
    <_>
      <rects>
        <_>
          4 2 6 8 -1.</_>
        <_>
          4 2 3 4 2.</_>
        <_>
          7 6 3 4 2.</_></rects>
      <tilted>0</tilted></_>
    <_>
      <rects>
        <_>
          4 4 6 1 -1.</_>
        <_>
          7 4 3 1 2.</_></rects>
      <tilted>0</tilted></_>
    <_>
      <rects>
        <_>
          4 4 6 2 -1.</_>
        <_>
          4 4 3 1 2.</_>
        <_>
          7 5 3 1 2.</_></rects>
      <tilted>0</tilted></_>
    <_>
      <rects>
        <_>
          4 4 12 4 -1.</_>
        <_>
          8 4 4 4 3.</_></rects>
      <tilted>0</tilted></_>
    <_>
      <rects>
        <_>
          4 8 3 14 -1.</_>
        <_>
          4 15 3 7 2.</_></rects>
      <tilted>0</tilted></_>
    <_>
      <rects>
        <_>
          4 9 12 16 -1.</_>
        <_>
          10 9 6 16 2.</_></rects>
      <tilted>0</tilted></_>
    <_>
      <rects>
        <_>
          4 14 3 8 -1.</_>
        <_>
          4 18 3 4 2.</_></rects>
      <tilted>0</tilted></_>
    <_>
      <rects>
        <_>
          4 16 34 8 -1.</_>
        <_>
          4 16 17 4 2.</_>
        <_>
          21 20 17 4 2.</_></rects>
      <tilted>0</tilted></_>
    <_>
      <rects>
        <_>
          4 30 16 2 -1.</_>
        <_>
          4 31 16 1 2.</_></rects>
      <tilted>0</tilted></_>
    <_>
      <rects>
        <_>
          4 31 6 1 -1.</_>
        <_>
          7 31 3 1 2.</_></rects>
      <tilted>0</tilted></_>
    <_>
      <rects>
        <_>
          5 0 2 6 -1.</_>
        <_>
          5 2 2 2 3.</_></rects>
      <tilted>0</tilted></_>
    <_>
      <rects>
        <_>
          5 0 9 3 -1.</_>
        <_>
          8 0 3 3 3.</_></rects>
      <tilted>0</tilted></_>
    <_>
      <rects>
        <_>
          5 2 36 15 -1.</_>
        <_>
          17 2 12 15 3.</_></rects>
      <tilted>0</tilted></_>
    <_>
      <rects>
        <_>
          5 4 8 22 -1.</_>
        <_>
          5 4 4 11 2.</_>
        <_>
          9 15 4 11 2.</_></rects>
      <tilted>0</tilted></_>
    <_>
      <rects>
        <_>
          5 5 16 9 -1.</_>
        <_>
          5 8 16 3 3.</_></rects>
      <tilted>0</tilted></_>
    <_>
      <rects>
        <_>
          5 7 40 22 -1.</_>
        <_>
          5 7 20 11 2.</_>
        <_>
          25 18 20 11 2.</_></rects>
      <tilted>0</tilted></_>
    <_>
      <rects>
        <_>
          5 10 2 2 -1.</_>
        <_>
          5 10 1 1 2.</_>
        <_>
          6 11 1 1 2.</_></rects>
      <tilted>0</tilted></_>
    <_>
      <rects>
        <_>
          5 11 3 4 -1.</_>
        <_>
          5 13 3 2 2.</_></rects>
      <tilted>0</tilted></_>
    <_>
      <rects>
        <_>
          5 13 42 12 -1.</_>
        <_>
          19 13 14 12 3.</_></rects>
      <tilted>0</tilted></_>
    <_>
      <rects>
        <_>
          5 16 2 12 -1.</_>
        <_>
          5 16 1 6 2.</_>
        <_>
          6 22 1 6 2.</_></rects>
      <tilted>0</tilted></_>
    <_>
      <rects>
        <_>
          5 16 6 4 -1.</_>
        <_>
          5 18 6 2 2.</_></rects>
      <tilted>0</tilted></_>
    <_>
      <rects>
        <_>
          5 27 2 1 -1.</_>
        <_>
          6 27 1 1 2.</_></rects>
      <tilted>0</tilted></_>
    <_>
      <rects>
        <_>
          5 28 3 3 -1.</_>
        <_>
          5 29 3 1 3.</_></rects>
      <tilted>0</tilted></_>
    <_>
      <rects>
        <_>
          5 30 1 2 -1.</_>
        <_>
          5 31 1 1 2.</_></rects>
      <tilted>0</tilted></_>
    <_>
      <rects>
        <_>
          6 3 2 2 -1.</_>
        <_>
          6 3 1 1 2.</_>
        <_>
          7 4 1 1 2.</_></rects>
      <tilted>0</tilted></_>
    <_>
      <rects>
        <_>
          6 13 14 14 -1.</_>
        <_>
          6 20 14 7 2.</_></rects>
      <tilted>0</tilted></_>
    <_>
      <rects>
        <_>
          6 27 2 2 -1.</_>
        <_>
          7 27 1 2 2.</_></rects>
      <tilted>0</tilted></_>
    <_>
      <rects>
        <_>
          6 29 9 3 -1.</_>
        <_>
          9 29 3 3 3.</_></rects>
      <tilted>0</tilted></_>
    <_>
      <rects>
        <_>
          6 31 34 1 -1.</_>
        <_>
          23 31 17 1 2.</_></rects>
      <tilted>0</tilted></_>
    <_>
      <rects>
        <_>
          7 3 7 6 -1.</_>
        <_>
          7 6 7 3 2.</_></rects>
      <tilted>0</tilted></_>
    <_>
      <rects>
        <_>
          7 10 25 3 -1.</_>
        <_>
          7 11 25 1 3.</_></rects>
      <tilted>0</tilted></_>
    <_>
      <rects>
        <_>
          7 19 7 2 -1.</_>
        <_>
          7 20 7 1 2.</_></rects>
      <tilted>0</tilted></_>
    <_>
      <rects>
        <_>
          7 24 1 8 -1.</_>
        <_>
          7 28 1 4 2.</_></rects>
      <tilted>0</tilted></_>
    <_>
      <rects>
        <_>
          8 0 25 9 -1.</_>
        <_>
          8 3 25 3 3.</_></rects>
      <tilted>0</tilted></_>
    <_>
      <rects>
        <_>
          8 1 6 8 -1.</_>
        <_>
          8 5 6 4 2.</_></rects>
      <tilted>0</tilted></_>
    <_>
      <rects>
        <_>
          8 7 12 8 -1.</_>
        <_>
          12 7 4 8 3.</_></rects>
      <tilted>0</tilted></_>
    <_>
      <rects>
        <_>
          8 31 2 1 -1.</_>
        <_>
          9 31 1 1 2.</_></rects>
      <tilted>0</tilted></_>
    <_>
      <rects>
        <_>
          9 0 34 2 -1.</_>
        <_>
          9 0 17 1 2.</_>
        <_>
          26 1 17 1 2.</_></rects>
      <tilted>0</tilted></_>
    <_>
      <rects>
        <_>
          9 4 10 2 -1.</_>
        <_>
          9 4 5 1 2.</_>
        <_>
          14 5 5 1 2.</_></rects>
      <tilted>0</tilted></_>
    <_>
      <rects>
        <_>
          9 4 12 24 -1.</_>
        <_>
          9 16 12 12 2.</_></rects>
      <tilted>0</tilted></_>
    <_>
      <rects>
        <_>
          9 12 37 3 -1.</_>
        <_>
          9 13 37 1 3.</_></rects>
      <tilted>0</tilted></_>
    <_>
      <rects>
        <_>
          9 17 17 2 -1.</_>
        <_>
          9 18 17 1 2.</_></rects>
      <tilted>0</tilted></_>
    <_>
      <rects>
        <_>
          9 27 2 1 -1.</_>
        <_>
          10 27 1 1 2.</_></rects>
      <tilted>0</tilted></_>
    <_>
      <rects>
        <_>
          9 30 3 1 -1.</_>
        <_>
          10 30 1 1 3.</_></rects>
      <tilted>0</tilted></_>
    <_>
      <rects>
        <_>
          9 30 8 1 -1.</_>
        <_>
          13 30 4 1 2.</_></rects>
      <tilted>0</tilted></_>
    <_>
      <rects>
        <_>
          10 8 27 24 -1.</_>
        <_>
          10 16 27 8 3.</_></rects>
      <tilted>0</tilted></_>
    <_>
      <rects>
        <_>
          10 18 20 6 -1.</_>
        <_>
          10 21 20 3 2.</_></rects>
      <tilted>0</tilted></_>
    <_>
      <rects>
        <_>
          10 18 37 14 -1.</_>
        <_>
          10 25 37 7 2.</_></rects>
      <tilted>0</tilted></_>
    <_>
      <rects>
        <_>
          10 21 28 6 -1.</_>
        <_>
          10 23 28 2 3.</_></rects>
      <tilted>0</tilted></_>
    <_>
      <rects>
        <_>
          10 26 27 4 -1.</_>
        <_>
          19 26 9 4 3.</_></rects>
      <tilted>0</tilted></_>
    <_>
      <rects>
        <_>
          10 30 35 2 -1.</_>
        <_>
          10 31 35 1 2.</_></rects>
      <tilted>0</tilted></_>
    <_>
      <rects>
        <_>
          11 0 18 4 -1.</_>
        <_>
          11 2 18 2 2.</_></rects>
      <tilted>0</tilted></_>
    <_>
      <rects>
        <_>
          11 3 20 26 -1.</_>
        <_>
          11 16 20 13 2.</_></rects>
      <tilted>0</tilted></_>
    <_>
      <rects>
        <_>
          11 7 10 2 -1.</_>
        <_>
          11 7 5 1 2.</_>
        <_>
          16 8 5 1 2.</_></rects>
      <tilted>0</tilted></_>
    <_>
      <rects>
        <_>
          11 7 11 3 -1.</_>
        <_>
          11 8 11 1 3.</_></rects>
      <tilted>0</tilted></_>
    <_>
      <rects>
        <_>
          11 30 2 2 -1.</_>
        <_>
          11 31 2 1 2.</_></rects>
      <tilted>0</tilted></_>
    <_>
      <rects>
        <_>
          12 5 12 8 -1.</_>
        <_>
          16 5 4 8 3.</_></rects>
      <tilted>0</tilted></_>
    <_>
      <rects>
        <_>
          12 8 6 4 -1.</_>
        <_>
          14 8 2 4 3.</_></rects>
      <tilted>0</tilted></_>
    <_>
      <rects>
        <_>
          12 9 15 1 -1.</_>
        <_>
          17 9 5 1 3.</_></rects>
      <tilted>0</tilted></_>
    <_>
      <rects>
        <_>
          12 26 24 1 -1.</_>
        <_>
          20 26 8 1 3.</_></rects>
      <tilted>0</tilted></_>
    <_>
      <rects>
        <_>
          12 29 3 2 -1.</_>
        <_>
          12 30 3 1 2.</_></rects>
      <tilted>0</tilted></_>
    <_>
      <rects>
        <_>
          13 0 12 3 -1.</_>
        <_>
          17 0 4 3 3.</_></rects>
      <tilted>0</tilted></_>
    <_>
      <rects>
        <_>
          13 5 34 12 -1.</_>
        <_>
          13 9 34 4 3.</_></rects>
      <tilted>0</tilted></_>
    <_>
      <rects>
        <_>
          13 12 18 18 -1.</_>
        <_>
          13 18 18 6 3.</_></rects>
      <tilted>0</tilted></_>
    <_>
      <rects>
        <_>
          13 16 3 12 -1.</_>
        <_>
          13 22 3 6 2.</_></rects>
      <tilted>0</tilted></_>
    <_>
      <rects>
        <_>
          13 18 34 14 -1.</_>
        <_>
          13 25 34 7 2.</_></rects>
      <tilted>0</tilted></_>
    <_>
      <rects>
        <_>
          13 22 2 4 -1.</_>
        <_>
          13 22 1 2 2.</_>
        <_>
          14 24 1 2 2.</_></rects>
      <tilted>0</tilted></_>
    <_>
      <rects>
        <_>
          13 26 12 6 -1.</_>
        <_>
          13 26 6 3 2.</_>
        <_>
          19 29 6 3 2.</_></rects>
      <tilted>0</tilted></_>
    <_>
      <rects>
        <_>
          13 29 2 1 -1.</_>
        <_>
          14 29 1 1 2.</_></rects>
      <tilted>0</tilted></_>
    <_>
      <rects>
        <_>
          14 0 4 2 -1.</_>
        <_>
          16 0 2 2 2.</_></rects>
      <tilted>0</tilted></_>
    <_>
      <rects>
        <_>
          14 0 21 6 -1.</_>
        <_>
          14 3 21 3 2.</_></rects>
      <tilted>0</tilted></_>
    <_>
      <rects>
        <_>
          14 1 6 3 -1.</_>
        <_>
          16 1 2 3 3.</_></rects>
      <tilted>0</tilted></_>
    <_>
      <rects>
        <_>
          14 4 3 1 -1.</_>
        <_>
          15 4 1 1 3.</_></rects>
      <tilted>0</tilted></_>
    <_>
      <rects>
        <_>
          14 4 24 15 -1.</_>
        <_>
          14 9 24 5 3.</_></rects>
      <tilted>0</tilted></_>
    <_>
      <rects>
        <_>
          14 10 26 8 -1.</_>
        <_>
          14 14 26 4 2.</_></rects>
      <tilted>0</tilted></_>
    <_>
      <rects>
        <_>
          14 13 14 6 -1.</_>
        <_>
          14 13 7 3 2.</_>
        <_>
          21 16 7 3 2.</_></rects>
      <tilted>0</tilted></_>
    <_>
      <rects>
        <_>
          14 24 2 2 -1.</_>
        <_>
          14 24 1 1 2.</_>
        <_>
          15 25 1 1 2.</_></rects>
      <tilted>0</tilted></_>
    <_>
      <rects>
        <_>
          14 29 2 2 -1.</_>
        <_>
          15 29 1 2 2.</_></rects>
      <tilted>0</tilted></_>
    <_>
      <rects>
        <_>
          15 3 16 9 -1.</_>
        <_>
          15 6 16 3 3.</_></rects>
      <tilted>0</tilted></_>
    <_>
      <rects>
        <_>
          15 10 30 1 -1.</_>
        <_>
          25 10 10 1 3.</_></rects>
      <tilted>0</tilted></_>
    <_>
      <rects>
        <_>
          15 16 5 12 -1.</_>
        <_>
          15 22 5 6 2.</_></rects>
      <tilted>0</tilted></_>
    <_>
      <rects>
        <_>
          15 20 16 2 -1.</_>
        <_>
          15 20 8 1 2.</_>
        <_>
          23 21 8 1 2.</_></rects>
      <tilted>0</tilted></_>
    <_>
      <rects>
        <_>
          16 11 2 4 -1.</_>
        <_>
          16 13 2 2 2.</_></rects>
      <tilted>0</tilted></_>
    <_>
      <rects>
        <_>
          16 11 6 3 -1.</_>
        <_>
          18 11 2 3 3.</_></rects>
      <tilted>0</tilted></_>
    <_>
      <rects>
        <_>
          16 16 2 10 -1.</_>
        <_>
          17 16 1 10 2.</_></rects>
      <tilted>0</tilted></_>
    <_>
      <rects>
        <_>
          17 0 1 2 -1.</_>
        <_>
          17 1 1 1 2.</_></rects>
      <tilted>0</tilted></_>
    <_>
      <rects>
        <_>
          17 0 2 2 -1.</_>
        <_>
          17 1 2 1 2.</_></rects>
      <tilted>0</tilted></_>
    <_>
      <rects>
        <_>
          17 0 20 2 -1.</_>
        <_>
          17 0 10 1 2.</_>
        <_>
          27 1 10 1 2.</_></rects>
      <tilted>0</tilted></_>
    <_>
      <rects>
        <_>
          17 3 3 3 -1.</_>
        <_>
          18 3 1 3 3.</_></rects>
      <tilted>0</tilted></_>
    <_>
      <rects>
        <_>
          17 10 3 3 -1.</_>
        <_>
          18 10 1 3 3.</_></rects>
      <tilted>0</tilted></_>
    <_>
      <rects>
        <_>
          17 10 16 2 -1.</_>
        <_>
          17 10 8 1 2.</_>
        <_>
          25 11 8 1 2.</_></rects>
      <tilted>0</tilted></_>
    <_>
      <rects>
        <_>
          17 20 21 7 -1.</_>
        <_>
          24 20 7 7 3.</_></rects>
      <tilted>0</tilted></_>
    <_>
      <rects>
        <_>
          17 29 19 3 -1.</_>
        <_>
          17 30 19 1 3.</_></rects>
      <tilted>0</tilted></_>
    <_>
      <rects>
        <_>
          18 9 2 2 -1.</_>
        <_>
          18 9 1 1 2.</_>
        <_>
          19 10 1 1 2.</_></rects>
      <tilted>0</tilted></_>
    <_>
      <rects>
        <_>
          18 12 15 1 -1.</_>
        <_>
          23 12 5 1 3.</_></rects>
      <tilted>0</tilted></_>
    <_>
      <rects>
        <_>
          18 22 4 8 -1.</_>
        <_>
          20 22 2 8 2.</_></rects>
      <tilted>0</tilted></_>
    <_>
      <rects>
        <_>
          18 31 2 1 -1.</_>
        <_>
          19 31 1 1 2.</_></rects>
      <tilted>0</tilted></_>
    <_>
      <rects>
        <_>
          19 3 8 1 -1.</_>
        <_>
          23 3 4 1 2.</_></rects>
      <tilted>0</tilted></_>
    <_>
      <rects>
        <_>
          19 20 18 3 -1.</_>
        <_>
          25 20 6 3 3.</_></rects>
      <tilted>0</tilted></_>
    <_>
      <rects>
        <_>
          19 29 2 3 -1.</_>
        <_>
          20 29 1 3 2.</_></rects>
      <tilted>0</tilted></_>
    <_>
      <rects>
        <_>
          20 0 10 5 -1.</_>
        <_>
          25 0 5 5 2.</_></rects>
      <tilted>0</tilted></_>
    <_>
      <rects>
        <_>
          20 1 6 4 -1.</_>
        <_>
          20 3 6 2 2.</_></rects>
      <tilted>0</tilted></_>
    <_>
      <rects>
        <_>
          20 1 17 6 -1.</_>
        <_>
          20 3 17 2 3.</_></rects>
      <tilted>0</tilted></_>
    <_>
      <rects>
        <_>
          20 2 3 3 -1.</_>
        <_>
          21 2 1 3 3.</_></rects>
      <tilted>0</tilted></_>
    <_>
      <rects>
        <_>
          20 5 1 15 -1.</_>
        <_>
          20 10 1 5 3.</_></rects>
      <tilted>0</tilted></_>
    <_>
      <rects>
        <_>
          20 8 14 24 -1.</_>
        <_>
          20 16 14 8 3.</_></rects>
      <tilted>0</tilted></_>
    <_>
      <rects>
        <_>
          20 21 20 3 -1.</_>
        <_>
          20 22 20 1 3.</_></rects>
      <tilted>0</tilted></_>
    <_>
      <rects>
        <_>
          21 1 3 3 -1.</_>
        <_>
          22 1 1 3 3.</_></rects>
      <tilted>0</tilted></_>
    <_>
      <rects>
        <_>
          21 14 21 9 -1.</_>
        <_>
          21 17 21 3 3.</_></rects>
      <tilted>0</tilted></_>
    <_>
      <rects>
        <_>
          21 18 17 9 -1.</_>
        <_>
          21 21 17 3 3.</_></rects>
      <tilted>0</tilted></_>
    <_>
      <rects>
        <_>
          21 21 6 4 -1.</_>
        <_>
          23 21 2 4 3.</_></rects>
      <tilted>0</tilted></_>
    <_>
      <rects>
        <_>
          22 0 12 5 -1.</_>
        <_>
          26 0 4 5 3.</_></rects>
      <tilted>0</tilted></_>
    <_>
      <rects>
        <_>
          22 1 2 6 -1.</_>
        <_>
          22 1 1 3 2.</_>
        <_>
          23 4 1 3 2.</_></rects>
      <tilted>0</tilted></_>
    <_>
      <rects>
        <_>
          22 2 6 13 -1.</_>
        <_>
          24 2 2 13 3.</_></rects>
      <tilted>0</tilted></_>
    <_>
      <rects>
        <_>
          22 5 6 1 -1.</_>
        <_>
          25 5 3 1 2.</_></rects>
      <tilted>0</tilted></_>
    <_>
      <rects>
        <_>
          22 26 18 2 -1.</_>
        <_>
          22 27 18 1 2.</_></rects>
      <tilted>0</tilted></_>
    <_>
      <rects>
        <_>
          23 8 21 9 -1.</_>
        <_>
          23 11 21 3 3.</_></rects>
      <tilted>0</tilted></_>
    <_>
      <rects>
        <_>
          23 15 3 3 -1.</_>
        <_>
          23 16 3 1 3.</_></rects>
      <tilted>0</tilted></_>
    <_>
      <rects>
        <_>
          23 20 5 12 -1.</_>
        <_>
          23 26 5 6 2.</_></rects>
      <tilted>0</tilted></_>
    <_>
      <rects>
        <_>
          23 21 8 6 -1.</_>
        <_>
          23 23 8 2 3.</_></rects>
      <tilted>0</tilted></_>
    <_>
      <rects>
        <_>
          23 24 2 2 -1.</_>
        <_>
          23 24 1 1 2.</_>
        <_>
          24 25 1 1 2.</_></rects>
      <tilted>0</tilted></_>
    <_>
      <rects>
        <_>
          23 26 15 3 -1.</_>
        <_>
          23 27 15 1 3.</_></rects>
      <tilted>0</tilted></_>
    <_>
      <rects>
        <_>
          23 29 12 3 -1.</_>
        <_>
          23 30 12 1 3.</_></rects>
      <tilted>0</tilted></_>
    <_>
      <rects>
        <_>
          24 0 3 1 -1.</_>
        <_>
          25 0 1 1 3.</_></rects>
      <tilted>0</tilted></_>
    <_>
      <rects>
        <_>
          24 7 2 3 -1.</_>
        <_>
          25 7 1 3 2.</_></rects>
      <tilted>0</tilted></_>
    <_>
      <rects>
        <_>
          24 24 15 8 -1.</_>
        <_>
          24 28 15 4 2.</_></rects>
      <tilted>0</tilted></_>
    <_>
      <rects>
        <_>
          25 0 4 6 -1.</_>
        <_>
          25 3 4 3 2.</_></rects>
      <tilted>0</tilted></_>
    <_>
      <rects>
        <_>
          25 1 4 4 -1.</_>
        <_>
          27 1 2 4 2.</_></rects>
      <tilted>0</tilted></_>
    <_>
      <rects>
        <_>
          25 2 2 2 -1.</_>
        <_>
          26 2 1 2 2.</_></rects>
      <tilted>0</tilted></_>
    <_>
      <rects>
        <_>
          25 13 21 9 -1.</_>
        <_>
          25 16 21 3 3.</_></rects>
      <tilted>0</tilted></_>
    <_>
      <rects>
        <_>
          26 6 12 9 -1.</_>
        <_>
          26 9 12 3 3.</_></rects>
      <tilted>0</tilted></_>
    <_>
      <rects>
        <_>
          26 7 2 15 -1.</_>
        <_>
          26 12 2 5 3.</_></rects>
      <tilted>0</tilted></_>
    <_>
      <rects>
        <_>
          26 12 21 9 -1.</_>
        <_>
          33 12 7 9 3.</_></rects>
      <tilted>0</tilted></_>
    <_>
      <rects>
        <_>
          26 21 1 3 -1.</_>
        <_>
          26 22 1 1 3.</_></rects>
      <tilted>0</tilted></_>
    <_>
      <rects>
        <_>
          26 22 10 2 -1.</_>
        <_>
          26 22 5 1 2.</_>
        <_>
          31 23 5 1 2.</_></rects>
      <tilted>0</tilted></_>
    <_>
      <rects>
        <_>
          27 0 3 1 -1.</_>
        <_>
          28 0 1 1 3.</_></rects>
      <tilted>0</tilted></_>
    <_>
      <rects>
        <_>
          27 0 10 8 -1.</_>
        <_>
          27 0 5 4 2.</_>
        <_>
          32 4 5 4 2.</_></rects>
      <tilted>0</tilted></_>
    <_>
      <rects>
        <_>
          27 11 12 9 -1.</_>
        <_>
          27 14 12 3 3.</_></rects>
      <tilted>0</tilted></_>
    <_>
      <rects>
        <_>
          27 14 6 3 -1.</_>
        <_>
          29 14 2 3 3.</_></rects>
      <tilted>0</tilted></_>
    <_>
      <rects>
        <_>
          27 15 8 1 -1.</_>
        <_>
          31 15 4 1 2.</_></rects>
      <tilted>0</tilted></_>
    <_>
      <rects>
        <_>
          27 15 12 11 -1.</_>
        <_>
          31 15 4 11 3.</_></rects>
      <tilted>0</tilted></_>
    <_>
      <rects>
        <_>
          28 1 6 19 -1.</_>
        <_>
          30 1 2 19 3.</_></rects>
      <tilted>0</tilted></_>
    <_>
      <rects>
        <_>
          28 8 1 14 -1.</_>
        <_>
          28 15 1 7 2.</_></rects>
      <tilted>0</tilted></_>
    <_>
      <rects>
        <_>
          28 8 10 3 -1.</_>
        <_>
          28 9 10 1 3.</_></rects>
      <tilted>0</tilted></_>
    <_>
      <rects>
        <_>
          28 21 10 3 -1.</_>
        <_>
          28 22 10 1 3.</_></rects>
      <tilted>0</tilted></_>
    <_>
      <rects>
        <_>
          29 0 10 1 -1.</_>
        <_>
          34 0 5 1 2.</_></rects>
      <tilted>0</tilted></_>
    <_>
      <rects>
        <_>
          29 4 1 3 -1.</_>
        <_>
          29 5 1 1 3.</_></rects>
      <tilted>0</tilted></_>
    <_>
      <rects>
        <_>
          30 12 11 9 -1.</_>
        <_>
          30 15 11 3 3.</_></rects>
      <tilted>0</tilted></_>
    <_>
      <rects>
        <_>
          30 23 14 2 -1.</_>
        <_>
          30 23 7 1 2.</_>
        <_>
          37 24 7 1 2.</_></rects>
      <tilted>0</tilted></_>
    <_>
      <rects>
        <_>
          30 25 15 3 -1.</_>
        <_>
          30 26 15 1 3.</_></rects>
      <tilted>0</tilted></_>
    <_>
      <rects>
        <_>
          31 0 12 2 -1.</_>
        <_>
          37 0 6 2 2.</_></rects>
      <tilted>0</tilted></_>
    <_>
      <rects>
        <_>
          31 1 6 4 -1.</_>
        <_>
          33 1 2 4 3.</_></rects>
      <tilted>0</tilted></_>
    <_>
      <rects>
        <_>
          31 10 5 6 -1.</_>
        <_>
          31 12 5 2 3.</_></rects>
      <tilted>0</tilted></_>
    <_>
      <rects>
        <_>
          31 22 14 3 -1.</_>
        <_>
          31 23 14 1 3.</_></rects>
      <tilted>0</tilted></_>
    <_>
      <rects>
        <_>
          31 28 1 4 -1.</_>
        <_>
          31 30 1 2 2.</_></rects>
      <tilted>0</tilted></_>
    <_>
      <rects>
        <_>
          32 0 12 1 -1.</_>
        <_>
          36 0 4 1 3.</_></rects>
      <tilted>0</tilted></_>
    <_>
      <rects>
        <_>
          32 14 3 1 -1.</_>
        <_>
          33 14 1 1 3.</_></rects>
      <tilted>0</tilted></_>
    <_>
      <rects>
        <_>
          32 23 8 6 -1.</_>
        <_>
          32 25 8 2 3.</_></rects>
      <tilted>0</tilted></_>
    <_>
      <rects>
        <_>
          32 31 3 1 -1.</_>
        <_>
          33 31 1 1 3.</_></rects>
      <tilted>0</tilted></_>
    <_>
      <rects>
        <_>
          33 2 8 12 -1.</_>
        <_>
          33 2 4 6 2.</_>
        <_>
          37 8 4 6 2.</_></rects>
      <tilted>0</tilted></_>
    <_>
      <rects>
        <_>
          33 10 9 10 -1.</_>
        <_>
          36 10 3 10 3.</_></rects>
      <tilted>0</tilted></_>
    <_>
      <rects>
        <_>
          33 14 2 3 -1.</_>
        <_>
          33 15 2 1 3.</_></rects>
      <tilted>0</tilted></_>
    <_>
      <rects>
        <_>
          33 16 1 9 -1.</_>
        <_>
          33 19 1 3 3.</_></rects>
      <tilted>0</tilted></_>
    <_>
      <rects>
        <_>
          33 18 10 3 -1.</_>
        <_>
          33 19 10 1 3.</_></rects>
      <tilted>0</tilted></_>
    <_>
      <rects>
        <_>
          33 21 12 2 -1.</_>
        <_>
          37 21 4 2 3.</_></rects>
      <tilted>0</tilted></_>
    <_>
      <rects>
        <_>
          33 22 8 3 -1.</_>
        <_>
          33 23 8 1 3.</_></rects>
      <tilted>0</tilted></_>
    <_>
      <rects>
        <_>
          33 22 14 10 -1.</_>
        <_>
          33 27 14 5 2.</_></rects>
      <tilted>0</tilted></_>
    <_>
      <rects>
        <_>
          33 23 12 4 -1.</_>
        <_>
          33 23 6 2 2.</_>
        <_>
          39 25 6 2 2.</_></rects>
      <tilted>0</tilted></_>
    <_>
      <rects>
        <_>
          33 30 2 2 -1.</_>
        <_>
          34 30 1 2 2.</_></rects>
      <tilted>0</tilted></_>
    <_>
      <rects>
        <_>
          34 0 8 12 -1.</_>
        <_>
          34 4 8 4 3.</_></rects>
      <tilted>0</tilted></_>
    <_>
      <rects>
        <_>
          34 13 12 10 -1.</_>
        <_>
          34 13 6 5 2.</_>
        <_>
          40 18 6 5 2.</_></rects>
      <tilted>0</tilted></_>
    <_>
      <rects>
        <_>
          34 14 2 15 -1.</_>
        <_>
          34 19 2 5 3.</_></rects>
      <tilted>0</tilted></_>
    <_>
      <rects>
        <_>
          34 27 4 3 -1.</_>
        <_>
          34 28 4 1 3.</_></rects>
      <tilted>0</tilted></_>
    <_>
      <rects>
        <_>
          34 28 12 3 -1.</_>
        <_>
          38 28 4 3 3.</_></rects>
      <tilted>0</tilted></_>
    <_>
      <rects>
        <_>
          34 30 2 2 -1.</_>
        <_>
          34 31 2 1 2.</_></rects>
      <tilted>0</tilted></_>
    <_>
      <rects>
        <_>
          35 9 4 2 -1.</_>
        <_>
          35 9 2 1 2.</_>
        <_>
          37 10 2 1 2.</_></rects>
      <tilted>0</tilted></_>
    <_>
      <rects>
        <_>
          35 26 12 6 -1.</_>
        <_>
          39 26 4 6 3.</_></rects>
      <tilted>0</tilted></_>
    <_>
      <rects>
        <_>
          36 0 6 5 -1.</_>
        <_>
          39 0 3 5 2.</_></rects>
      <tilted>0</tilted></_>
    <_>
      <rects>
        <_>
          36 0 10 2 -1.</_>
        <_>
          41 0 5 2 2.</_></rects>
      <tilted>0</tilted></_>
    <_>
      <rects>
        <_>
          36 0 9 6 -1.</_>
        <_>
          36 3 9 3 2.</_></rects>
      <tilted>0</tilted></_>
    <_>
      <rects>
        <_>
          37 4 6 1 -1.</_>
        <_>
          39 4 2 1 3.</_></rects>
      <tilted>0</tilted></_>
    <_>
      <rects>
        <_>
          38 1 6 1 -1.</_>
        <_>
          40 1 2 1 3.</_></rects>
      <tilted>0</tilted></_>
    <_>
      <rects>
        <_>
          38 13 6 10 -1.</_>
        <_>
          38 13 3 5 2.</_>
        <_>
          41 18 3 5 2.</_></rects>
      <tilted>0</tilted></_>
    <_>
      <rects>
        <_>
          38 16 9 9 -1.</_>
        <_>
          41 16 3 9 3.</_></rects>
      <tilted>0</tilted></_>
    <_>
      <rects>
        <_>
          39 5 6 12 -1.</_>
        <_>
          39 5 3 6 2.</_>
        <_>
          42 11 3 6 2.</_></rects>
      <tilted>0</tilted></_>
    <_>
      <rects>
        <_>
          39 21 4 3 -1.</_>
        <_>
          39 22 4 1 3.</_></rects>
      <tilted>0</tilted></_>
    <_>
      <rects>
        <_>
          39 31 8 1 -1.</_>
        <_>
          43 31 4 1 2.</_></rects>
      <tilted>0</tilted></_>
    <_>
      <rects>
        <_>
          40 1 3 1 -1.</_>
        <_>
          41 1 1 1 3.</_></rects>
      <tilted>0</tilted></_>
    <_>
      <rects>
        <_>
          40 4 4 4 -1.</_>
        <_>
          42 4 2 4 2.</_></rects>
      <tilted>0</tilted></_>
    <_>
      <rects>
        <_>
          41 0 2 6 -1.</_>
        <_>
          41 0 1 3 2.</_>
        <_>
          42 3 1 3 2.</_></rects>
      <tilted>0</tilted></_>
    <_>
      <rects>
        <_>
          41 12 4 6 -1.</_>
        <_>
          41 12 2 3 2.</_>
        <_>
          43 15 2 3 2.</_></rects>
      <tilted>0</tilted></_>
    <_>
      <rects>
        <_>
          41 19 2 2 -1.</_>
        <_>
          41 19 1 1 2.</_>
        <_>
          42 20 1 1 2.</_></rects>
      <tilted>0</tilted></_>
    <_>
      <rects>
        <_>
          42 20 3 12 -1.</_>
        <_>
          42 26 3 6 2.</_></rects>
      <tilted>0</tilted></_>
    <_>
      <rects>
        <_>
          43 16 4 10 -1.</_>
        <_>
          43 16 2 5 2.</_>
        <_>
          45 21 2 5 2.</_></rects>
      <tilted>0</tilted></_>
    <_>
      <rects>
        <_>
          43 18 4 14 -1.</_>
        <_>
          43 18 2 7 2.</_>
        <_>
          45 25 2 7 2.</_></rects>
      <tilted>0</tilted></_>
    <_>
      <rects>
        <_>
          43 29 4 3 -1.</_>
        <_>
          45 29 2 3 2.</_></rects>
      <tilted>0</tilted></_>
    <_>
      <rects>
        <_>
          43 31 4 1 -1.</_>
        <_>
          45 31 2 1 2.</_></rects>
      <tilted>0</tilted></_>
    <_>
      <rects>
        <_>
          44 0 3 3 -1.</_>
        <_>
          45 0 1 3 3.</_></rects>
      <tilted>0</tilted></_>
    <_>
      <rects>
        <_>
          44 4 2 2 -1.</_>
        <_>
          44 4 1 1 2.</_>
        <_>
          45 5 1 1 2.</_></rects>
      <tilted>0</tilted></_>
    <_>
      <rects>
        <_>
          45 0 2 11 -1.</_>
        <_>
          46 0 1 11 2.</_></rects>
      <tilted>0</tilted></_>
    <_>
      <rects>
        <_>
          45 3 2 11 -1.</_>
        <_>
          46 3 1 11 2.</_></rects>
      <tilted>0</tilted></_>
    <_>
      <rects>
        <_>
          45 14 2 13 -1.</_>
        <_>
          46 14 1 13 2.</_></rects>
      <tilted>0</tilted></_></features></cascade>
</opencv_storage>
